400 64
35936474 0.041765988 0.118286565 -0.09061618 0.17278491 -0.027740862 -0.17996113 0.14604741 -0.105494484 -0.046333656 0.1545577 -0.027319985 0.034498543 -0.06645687 -0.22111134 0.036568556 -0.13597937 -0.08181641 0.20329943 0.08769099 0.28632972 -0.07713849 -0.056000534 0.13023733 0.21037717 -0.23022287 -0.10960233 0.032907806 -0.19306447 0.098324455 0.17077607 0.097806886 0.1168111 -0.055932567 0.003715274 0.039977536 0.16970484 0.1303081 -0.08643051 -0.22196916 -0.06768816 0.01594079 0.010031952 -0.23458853 0.13232528 0.068342544 0.18679796 0.18789858 0.2488174 -0.19235878 -0.2618211 -0.0037086662 -0.08397837 -0.3645419 0.043980345 0.076559044 -0.10325642 -0.15004586 0.23833466 -0.058183648 0.18785743 -0.1373292 -0.26334193 -0.2409688 0.030989505
23083404 -0.101430446 0.0772265 0.17775963 0.02507866 -0.15343426 -0.2174268 0.09660163 -0.0072380407 -0.13831545 -0.15133385 0.12089591 -0.04816074 -0.2612094 -0.09385671 0.03565739 -0.18673208 -0.032383885 0.1589922 0.023650574 0.05179085 -0.023212867 -0.23134373 0.028024983 0.13436796 -0.24299125 0.02983435 0.08497184 -0.07112474 0.047723778 0.14268655 0.19235551 -0.023677368 -0.19779035 -0.0057589733 -0.25221604 0.17862658 0.060069405 -0.22461621 -0.25616464 -0.10866183 0.15441993 0.00372231 -0.2102125 0.08748259 0.15992615 -0.025951289 0.16387564 -0.040367905 -0.08630329 -0.25296274 0.0707119 0.21448447 -0.12913337 0.065444745 -0.010593704 -0.05027985 -0.012366695 0.023056086 0.02526007 -0.056166213 -0.08420241 -0.053685162 -0.36679786 0.11432965
377723724 -0.007277616 0.09311963 -0.19354822 0.14342716 0.04165905 -0.13925174 0.08882968 -0.17444389 -0.097791545 0.042360537 0.10368673 0.11296043 -0.14000915 -0.14994094 0.114035316 0.0913799 0.011072288 0.09812432 0.12937821 0.25353232 0.06665261 -0.08342326 -0.14557922 0.13086504 -0.09274795 0.2477854 0.061267436 0.34393638 -0.24622758 0.22971348 0.0476802 -0.01098956 -0.2016198 0.17736526 -0.04625998 0.021030758 -0.06805435 -0.4235096 0.088834286 0.01568299 0.24662796 -0.059847753 0.25752074 -0.02856005 0.080568716 -0.018053057 -0.09929846 0.2211538 -0.01917514 -0.15989462 0.124945804 0.15965451 -0.21681294 0.05417658 0.09903641 -0.23089491 0.035341077 0.0020599836 0.029544951 -0.13436021 -0.16293052 -0.00081859925 -0.2937871 0.12665199
162041294 -0.20243354 0.14704312 -0.24502231 -0.4630256 0.07397097 0.05471516 0.20312679 0.2225417 0.040507473 0.2592545 -0.09741035 0.31993523 -0.19075403 -0.12141636 -0.16498393 -0.10932522 -0.005693119 -0.09410775 0.10882365 -0.056452684 -0.1724921 0.030609326 -0.3058722 0.19593087 0.001576291 -0.11811763 0.084976465 0.15713501 -0.19766897 0.17366514 0.33913666 -0.08828533 -0.17450881 -0.09464859 0.12871198 0.24789816 0.07856514 -0.06395312 -0.02932014 0.08597642 0.26110572 0.06412617 0.0348512 0.018060002 0.11984054 0.16269532 0.30888864 0.24349995 -0.06056785 -0.3530678 0.11832709 0.011339395 0.21220009 0.2905622 -0.082699485 -0.18797468 0.11508351 0.26677588 0.37062895 -0.20522577 -0.149261 -0.2517056 -0.18262929 -0.23107752
247901736 -0.2474236 -0.12189713 -0.24593304 -0.21421026 -0.15052521 0.22237834 0.13244165 0.024787402 0.0783126 -0.11175038 -0.042261247 -0.057275657 -0.12570041 -0.1591573 0.18209636 0.092602916 -0.15368253 -0.058294274 0.042690013 0.11987355 -0.11792741 -0.024615845 -0.17603563 0.24325885 -0.19623302 -0.10774522 0.0074164663 0.255588 -0.10660454 0.22211806 0.39926025 -0.21982802 -0.14702713 -0.12359157 0.09392051 0.056800805 0.17742069 -0.15337586 -0.11237018 -0.03963128 0.14955246 -0.17374362 0.09061995 0.20546125 0.14374387 0.08115694 0.3355833 0.18792774 -0.12321256 -0.42460313 -0.16536881 0.104370326 0.026337216 0.13699302 0.2656874 -0.32309297 0.10587858 -0.06287566 0.108306564 0.14464387 -0.09512019 0.057794847 -0.110631354 0.0751412
132389474 -0.21921356 -0.31448084 -0.41988698 0.15333633 -0.12765114 0.07367676 0.07863836 0.19461793 -0.099814184 -0.01798842 0.052362595 0.008340203 -0.24019094 -0.20887259 0.28025153 -0.20033918 -0.18154676 0.114279166 0.09604994 0.32427102 -0.10163911 0.1881775 -0.16000217 0.42414322 -0.17460403 0.21331525 0.001854811 -0.18979976 -0.09385406 0.061014794 -0.035257045 -0.13740595 -0.07887338 0.027194155 -0.091260694 -0.10433824 -0.0563484 -0.025053913 -0.05279883 0.13657127 0.0022350722 0.1283888 0.22814001 0.13004777 0.4102667 0.06121146 0.11312255 0.19880192 -0.26572976 -0.22827479 0.09609645 0.036679965 0.024811437 0.32744917 -0.10083297 0.23406693 -0.015591978 0.22190084 -0.07577189 -0.015772477 -0.27334026 -0.21752146 -0.16579965 -0.055584103
91133460 0.058577415 -0.26048356 -0.26565915 0.13399562 0.03185081 -0.033590287 0.23417445 -0.19985996 -0.11970434 0.15923882 -0.20496567 -0.0047921836 -0.19023037 -0.2432266 -0.10640195 -0.03231185 -0.0031490186 0.10942726 0.02117681 -0.13709027 -0.07324159 -0.01856688 -0.15001081 0.16024977 -0.008179453 0.13458525 -0.09268912 -0.14762115 0.13249804 0.405858 0.4114013 0.05156889 -0.2068375 -0.3014878 0.15746033 0.069022804 0.09923794 -0.1877338 -0.30217236 -0.17395626 0.17800583 -0.07234987 0.1581655 0.08439459 0.31136978 0.047559407 0.1191069 0.15326716 -0.14561968 -0.21590976 -0.015279011 0.036056727 -0.07968815 0.15667863 -0.03951789 0.0021098875 -0.039388977 -0.016356118 -0.16056249 -0.08780675 -0.10862888 -0.19043119 0.00015180947 0.188556
119135103 0.019052194 0.20011605 -0.20741074 -0.20308676 -0.19001581 -0.069598965 0.10113514 -0.08516265 0.0063561704 -0.061602253 0.20468059 -0.060762916 -0.56769335 -0.16307639 -0.29423797 0.10999588 0.00012526146 0.25314498 -0.09432561 0.17533383 -0.15676387 -0.41828865 -0.09071314 0.086732216 -0.09078728 -0.1745155 -0.23095618 -0.13142416 0.015986072 0.13424796 0.03348576 0.13804454 -0.4001253 -0.04623271 -0.1139591 0.16358301 0.22894113 0.4895682 -0.11828656 -0.26813486 0.22815262 -0.11882122 -0.16534163 -0.084294334 0.18672849 0.0850205 0.43640593 0.1409233 -0.28270894 0.14840065 0.20244272 -0.14648607 0.0074548493 0.13960783 0.1130551 0.028062223 -0.06674731 0.07690127 0.08622463 0.0035065573 -0.018207295 -0.2114922 -0.27305037 -0.004338228
33995409 0.05465821 0.09082031 -0.030950299 -0.13400695 -0.004102416 -0.022943992 0.11882246 -0.10260948 -0.31695208 -0.20779675 -0.021652212 -0.11108495 -0.33328232 -0.28126866 0.010524929 -0.26882875 -0.28639346 0.29888427 -0.030030865 0.06476377 0.0014065737 -0.19966267 -0.16760269 0.06271873 -0.14173916 -0.06031664 0.32892352 -0.148845 -0.21792181 0.021981962 0.23604193 0.11820761 -0.34355104 -0.04822477 -0.09031885 0.077321716 0.15613781 0.1000598 -0.19850516 -0.07223958 0.20903608 -0.017512603 -0.15315561 0.21113862 -0.02313283 0.16826098 0.1863827 0.20585623 -0.058390815 0.05461916 0.038578533 -0.0944024 -0.12900878 0.22809176 0.25266275 0.15434712 -0.29653627 0.07651875 -0.14144391 0.10501308 -0.02487741 -0.004722031 -0.5130447 0.27677843
53853197 -0.13211162 0.1114293 0.037692912 0.1309477 0.06470499 -0.025056029 0.063302025 0.06664973 -0.17366527 -0.047851708 0.19959585 0.23318031 -0.21895932 -0.08644865 0.15688378 0.069181606 0.14746504 0.36245626 0.005959446 0.15793988 0.11945563 -0.2733815 0.14236106 0.39282107 -0.20319757 -0.14237352 0.045663867 -0.037843406 -0.12838069 0.19602916 0.124209344 -0.03455769 0.001555061 0.052701402 -0.33885196 0.26579928 0.14119378 -0.19252223 -0.22154425 -0.113801606 0.06829555 0.06937072 -0.275706 0.28819177 0.28331986 0.27543554 -0.0909203 0.29700506 0.10505162 -0.2057827 0.063928835 0.28499103 -0.35595402 -0.04857218 0.32224065 0.065049805 -0.11155791 -0.042310398 -0.15731008 -0.04611018 -0.21124145 0.03453939 -0.2261056 -0.14696586
72475439 0.14635597 -0.00763717 -0.39004543 0.1700405 -0.015961487 -0.0794245 0.42250067 -0.2016179 0.0026623425 0.387121 0.1338323 -0.10128562 -0.29074213 0.16346331 0.07875775 0.016294423 -0.0014471564 -0.0015927746 -0.015967725 0.11981715 -0.18578608 0.23911375 0.16448699 0.082548656 0.057512622 0.20081265 0.04074622 0.34133103 -0.013421613 0.1363501 0.05603883 -0.08406785 -0.39172947 0.01849693 0.0048997537 -0.00363563 -0.0815343 -0.32296577 -0.16859615 0.20353316 0.16816083 0.087634094 0.23435974 0.015530188 0.4434044 -0.10695659 0.0983588 0.17097507 -0.07002468 -0.27401283 -0.003547982 0.23408106 0.09997515 0.04113045 0.093850255 -0.09486136 -0.083346486 0.009828187 -0.07243435 0.12061788 -0.16350591 -0.22560835 -0.2053013 -0.017239688
35982046 0.39135072 -0.028343009 -0.109904766 -0.04775519 0.07374013 -0.20388882 0.32657915 0.12488088 -0.01838131 0.17296977 -0.11829875 0.0718761 0.043144174 -0.022954443 0.3399426 -0.109278336 0.05064305 0.36265978 0.16194157 0.32208318 0.025364323 -0.24243078 0.15780371 0.11346095 -0.13638118 -0.28219628 -0.09338335 0.25578105 0.13467312 0.32467416 0.20302588 -0.19363481 -0.17335464 0.055159662 -0.08810929 0.14104305 0.057507005 -0.23122774 -0.16318516 -0.14374712 0.24973649 0.26878357 -0.18122573 0.09833941 0.38774446 0.21475494 0.022614446 0.23056903 -0.013186491 -0.1933003 0.22751887 -0.11858411 -0.5831615 0.16838063 0.31375352 0.1295936 -0.059617206 0.1260144 -0.28899822 0.0745261 -0.1255579 -0.029386213 -0.035792205 0.08165972
42562446 -0.12568925 0.12667502 0.11172936 -0.10270992 0.053048592 0.011082395 -0.10676785 -0.29314536 -0.2852633 0.029945696 -0.12872249 0.441044 -0.2192923 -0.015556936 0.23922071 -0.0010972271 0.050014295 0.15142444 0.187013 0.2619247 -0.121134415 -0.003255348 0.047771513 0.49372607 -0.35994443 -0.19709085 -0.011562362 -0.006584283 -0.12857299 0.34616598 0.2967889 -0.29964074 -0.079505526 0.076414846 -0.22557919 -0.105870515 0.13727401 -0.0041264193 -0.1373602 -0.19647984 0.29002246 0.10810226 -0.24940208 0.17922273 -0.15291373 -0.24072404 0.27562925 -0.06408427 0.16553596 -0.33798882 0.02508055 0.12369853 0.14002863 0.103414334 0.09299917 -0.17302056 -0.03857441 -0.010292906 0.15714155 0.074747026 -0.124240585 0.02990398 -0.13699579 0.29436973
267425142 -0.0451185 0.20502846 -0.35196492 -0.04057096 0.1168735 -0.30593252 0.0063191936 -0.28296983 -0.12180038 -0.17607336 -0.13420293 0.003959748 -0.36541557 -0.27038237 0.19712451 -0.19525214 -0.06415053 0.04245362 0.27118114 -0.06084333 0.09587968 -0.106287286 0.13821498 0.06498441 0.11249167 0.106542654 -0.03440298 0.45549744 0.061480846 -0.12979263 -0.0016697347 -0.15287556 -0.30994546 -0.16688623 -0.072720625 -0.052908905 0.06507461 -0.017927522 -0.17198499 -0.103293635 -0.13650091 0.20720048 -0.20107211 0.26769102 0.2797414 0.21598588 0.27065486 0.2971637 -0.11815322 -0.19775228 0.04649158 0.07768108 -0.022346096 0.3731369 -0.011397512 -0.17090932 -0.011368961 0.04809881 -0.32899344 0.015561207 -0.0827984 0.26362854 -0.15561323 -0.06049667
82775356 -0.043100443 -0.4252145 -0.2003507 0.076803446 -0.2703869 0.12019805 0.09729514 -0.004965025 -0.014905678 -0.016344 -0.10161345 0.14042003 -0.23070219 -0.09360241 0.28099236 -0.008209673 -0.29000512 0.2303214 0.06799613 -0.12847105 -0.091837615 -0.035266783 -0.18063606 0.3395532 -0.1800706 0.2523997 0.13504905 0.26288226 0.108724974 0.39709798 0.050525863 -0.0021834208 -0.17712095 -0.4409715 -0.031982347 0.12902892 -0.10173392 -0.17719509 -0.04602512 0.26697394 0.059167914 0.022184474 0.059993826 -0.02464803 0.52329665 0.15889387 0.17286806 0.25194257 -0.11213236 -0.08755012 0.11405439 -0.06954166 0.003088593 0.06250469 0.028334232 -0.041581772 -0.09286944 -0.043592762 -0.0053851744 -0.12842464 0.086650304 -0.2085602 -0.21170953 -0.1030723
520135756 0.13783135 0.34702906 -0.3293075 0.15946269 0.28064185 -0.09456326 0.1954048 0.12677144 -0.008434273 0.34589675 -0.40007105 0.046411213 -0.28801084 -0.16457708 0.09550024 -0.14243843 -0.07159405 -0.21415237 0.1307425 0.1972287 0.1664004 -0.017128933 -0.25501823 0.10086204 0.12257498 0.18687747 0.08266293 0.17719972 -0.14054655 0.3812315 0.2943927 0.06978392 -0.005914912 0.014808021 -0.30186403 0.11602594 0.32251695 -0.24987064 -0.3315962 -0.28143513 0.14030771 -0.1810712 -0.28194454 0.13809596 0.28462118 0.0021883035 0.09677591 0.21648814 -0.043636996 0.017616095 0.18405353 -0.11233901 0.06800898 0.034776308 -0.07906426 -0.49455407 0.056335267 0.47265017 0.2904202 -0.37275797 -0.08259141 -0.20538275 0.005501964 -0.044432905
162869667 -0.14546753 -0.012968068 -0.22461078 -0.055302266 -0.19020581 0.046452723 0.003629874 -0.0606348 -0.3849097 0.18469273 0.17184794 -0.009242336 -0.26896697 -0.38178235 0.01929108 0.24529381 -0.08193717 -0.025508009 -0.034107905 0.05857227 0.078772806 -0.013279822 -0.14345129 0.055706754 -0.29061648 0.06393933 0.047899637 -0.024550492 -0.06077177 0.20583987 0.13486785 0.20537268 0.0008906852 -0.11571253 -0.1109133 -0.25861338 -0.025926925 0.106306985 -0.099637866 0.3443353 0.18541001 0.30282402 -0.24837722 0.11861845 0.14862868 0.029916717 0.13286439 0.20010857 0.28078926 -0.20620462 0.1364437 0.19964373 0.25761443 -0.00091516454 -0.23081078 -0.08970056 -0.23334704 -0.115419015 -0.5194458 0.020198869 -0.19778611 -0.3133458 -0.16210917 0.5602487
231335961 0.2906019 -0.13709791 -0.15709141 0.30936658 -0.0104397 0.14963181 0.13855988 -0.18025573 -0.019558856 -0.011195204 0.25071272 -0.22271866 -0.34361735 -0.13057633 0.081522405 -0.08097786 0.13041787 0.049484875 0.101694755 -0.18088505 -0.101003274 0.1647752 0.06345889 0.16399369 -0.026749643 0.16366005 -0.11817435 0.109249346 -0.0073957336 0.032437082 0.1043386 -0.1529044 -0.17851558 -0.24101192 -0.11423209 0.25173894 -0.08259307 -0.057352167 0.07160443 0.16943927 0.23371305 0.18132554 0.0461574 -0.019625742 0.3553142 0.26560056 0.08949681 0.34910405 0.18889993 -0.4708007 -0.20991622 -0.0516037 -0.10378985 0.39748782 -0.14672762 -0.40543157 0.137923 -0.055222314 -0.18708663 -0.0632051 0.265897 -0.18773082 -0.5313 -0.06254197
54438929 -0.20060565 0.04940901 -0.47303873 0.013890172 -0.15690596 0.054699663 -0.023874793 -0.2865937 -0.13723148 -0.12756053 0.1652056 -0.096310794 -0.0619338 -0.06001073 0.2517574 0.17404744 -0.17971067 -0.08167763 0.14553297 0.0019994248 -0.012218163 0.034182165 0.12448652 0.12361861 -0.27133575 0.12908879 0.029861264 0.1258609 -0.11499997 0.16150568 0.27818346 0.13261506 -0.3756486 0.14255397 -0.060997494 -0.057613764 0.15469466 0.14443323 -0.24022736 0.03780393 0.14579861 0.08472804 -0.18696192 0.102978244 0.38208923 0.12652029 0.042209424 0.5768685 -0.1721707 -0.25851795 -0.28191528 0.2509065 -0.17738627 -0.08612074 0.32016513 -0.09562958 -0.3055423 -0.28728685 -0.19625372 0.3260512 0.012518772 -0.016434195 -0.029056853 0.07478775
42384760 0.038767785 0.27786648 0.058490336 0.08906006 0.17267731 -0.14344288 0.349193 0.10717652 -0.13240989 -0.049083915 0.29476213 0.39131808 -0.043105017 -0.1313788 0.09581898 0.01911321 -0.028202346 0.07293907 0.453072 0.1544639 -0.010069233 -0.29715285 0.5256657 0.3574412 -0.38027236 0.21570133 0.04632851 -0.16484027 0.0466034 0.12758456 0.077426285 -0.16494532 -0.16215701 -0.25795797 -0.0407362 0.016683271 -0.09299105 -0.02985343 -0.12238574 -0.02145806 0.4041478 0.3113724 0.15067968 -0.13652289 0.23087089 0.06554145 0.10121676 0.13390324 -0.008843246 -0.046252206 0.102148786 0.09597304 -0.061416347 0.17242573 0.1659601 0.26135543 -0.116483934 0.19559622 -0.15272157 0.11212773 -0.17155471 -0.19324014 -0.29752842 0.12844427
132752344 -0.18871693 -0.031266227 -0.20310023 0.42765296 -0.16489014 0.18581738 -0.0009170188 -0.058414113 -0.07371948 0.0873589 -0.08154965 0.40425083 -0.0961363 -0.28196678 0.1151757 -0.015722184 -0.15768832 -0.1231639 0.2781801 0.4112918 0.00047144014 -0.16324408 -0.36378902 0.20727488 -0.13211007 0.12614515 0.0621067 -0.02242332 0.0065998384 0.39637432 -0.014890402 -0.0815726 0.051894605 -0.092846945 -0.12560308 0.10318472 -0.07070017 -0.24704534 0.05043601 0.01611864 0.21936676 0.2598631 0.020973546 -0.046290636 0.3173438 0.23601805 0.14301543 0.092678815 -0.066323504 -0.25216144 -0.187148 -0.17610493 0.050839256 0.16259243 0.15303792 -0.08183161 0.05930803 0.044758383 -0.36870405 -0.088880904 -0.23666275 -0.07834028 -0.11033045 -0.09477471
299242570 -0.03618935 -0.2666315 -0.3003732 -0.13159057 -0.17268108 -0.13341787 0.30784875 -0.10444151 -0.1483868 0.3248579 -0.14509512 -0.15923876 -0.15914655 -0.15314643 0.34920993 -0.26548487 0.103716284 0.32957545 0.1387664 0.11902823 -0.1753848 0.0809929 -0.2517572 0.24467818 -0.20565492 0.028100803 0.05887138 -0.101104036 0.0074344883 0.014710757 0.49518842 -0.0049460228 0.11114024 0.10348129 -0.062008776 0.107524045 0.17037974 -0.089052156 -0.054453555 0.123969704 0.10355933 0.1958678 0.140932 0.45733064 0.2899566 -0.23570226 0.25666544 0.07990722 -0.13707322 -0.34916335 -0.16968206 0.2105456 0.025629371 0.22711162 -0.0633148 0.00784318 -0.110039584 -0.2665739 -0.048606865 -0.075666405 -0.39398056 0.0964119 -0.035975248 0.0070683435
317370751 0.09495873 0.050545987 -0.038707953 0.122990444 0.002123243 -0.043447662 0.21445347 -0.01696527 -0.3040105 -0.12156606 0.14888316 0.16242592 -0.48081154 -0.041972566 0.16348304 -0.22528796 -0.034037713 0.27793854 -0.032364428 0.11597724 -0.0040536555 -0.24422035 -0.0027830158 0.24035546 -0.18703932 0.0009969327 -0.14468765 0.08507305 0.18174256 0.1620503 0.1630554 -0.2920483 -0.16331843 0.1641551 0.17795159 0.34999123 0.2197916 -0.018168308 -0.14003834 0.14472266 -0.07363396 0.07732948 -0.19283585 0.3322654 0.026491007 0.007099017 0.13511959 0.3715724 0.14408363 0.121398434 -0.027449576 0.079946816 -0.08792021 -0.008403833 0.16658616 -0.40161964 0.031935327 0.17176782 -0.2333317 0.00062874536 0.0196677 -0.26653406 -0.0988328 0.008196376
368148234 -0.1530549 -0.17091449 -0.03251082 0.12925883 -0.04027609 -0.13018437 0.21269578 -0.33560908 0.023722636 -0.34064272 0.21349666 -0.07403454 -0.31537658 -0.27722985 -0.021924721 -0.39008647 -0.213237 -0.16736312 -0.30324534 0.06934621 -0.13050275 0.2982071 -0.04932824 -0.01238145 0.007418899 0.14412795 0.17954434 0.23970579 0.28466892 -0.052419454 -0.006846597 -0.18859561 -0.26926938 -0.026184851 0.31663465 -0.0043943482 0.20342274 0.22218098 0.32954234 0.16974801 0.18219781 0.18409093 -0.3623637 -0.105422184 -0.02030322 -0.22368878 0.041562237 0.41723508 -0.5636617 -0.30316114 -0.07235111 -0.13714358 -0.24062891 0.16969861 -0.014066911 -0.3162997 -0.16407862 -0.08644056 0.13785848 0.43988615 -0.09934098 -0.3185721 -0.4004243 0.28746545
53643297 0.2169198 0.075900026 0.052360877 -0.03684921 -0.23110746 -0.110480115 0.19067672 -0.109985664 -0.116292804 0.27095395 -0.06297029 0.043452017 -0.032239065 -0.33554953 0.32249153 -0.053361822 -0.13808002 0.09966202 0.34820062 0.32647613 0.09088838 -0.16875409 -0.115740165 0.31632486 -0.28378186 0.039068855 0.22092721 -0.28804854 0.2352699 0.1290912 0.12946542 -0.013223817 -0.38786432 0.014089092 -0.13783881 0.20740707 0.11159505 -0.1772263 -0.14046614 0.073424265 0.12943664 0.3529609 -0.14524865 -0.11064343 -0.076312035 -0.18914942 0.010400867 0.24828096 -0.23080385 -0.3988458 -0.015245402 -0.06440476 -0.37758258 0.31487048 0.22723067 0.035701923 -0.08768393 0.21732743 0.21308632 0.060946774 -0.06495176 -0.014057752 -0.20677668 0.1329361
205415788 -0.10008748 0.18395178 0.053879604 -0.05556852 -0.021399448 -0.31264558 0.10300331 0.23685187 -0.14122339 -0.10438146 -0.0007766612 -0.072922125 -0.061764654 -0.14731616 -0.24948649 -0.18842818 -0.0744252 0.13717665 0.24786992 -0.036614843 0.14649482 -0.1268925 0.09760371 -0.077644564 -0.22198811 0.118516 -0.21483243 -0.29354686 -0.18164247 0.1819856 0.3407208 0.047891892 -0.13667418 -0.3830676 -0.26707172 -0.17793219 -0.099482864 -0.04241617 -0.054922715 -0.24713044 0.20143242 0.26117966 0.3172527 -0.09335031 0.080245346 0.016121726 0.41187593 -0.026180955 -0.1881497 -0.24897157 0.2362378 0.193953 0.06949855 0.28941846 -0.09123329 -0.6160466 -0.17325868 -0.19095449 0.10858928 -0.009155779 -0.5212997 0.111966506 -0.18778947 0.36492038
34430522 0.1201766 -0.009084743 -0.018605456 -0.10081279 0.16115898 -0.09760659 0.3467624 -0.064993806 0.015392362 -0.2003602 0.3127359 0.0983676 -0.21135712 -0.18676442 0.09127448 -0.072449386 0.17992607 0.22928734 0.0111161545 0.36827466 0.12168094 -0.20533477 0.43920138 0.3438433 -0.36011732 0.083142884 0.1810002 -0.06187715 0.019077985 0.31379303 0.017693529 -0.051761165 -0.091115735 0.0012723944 -0.21638341 -0.09418164 0.028461263 -0.2771999 -0.023701364 0.13814396 -0.032058913 0.04807215 -0.16813579 0.23389697 0.110724986 0.048375495 0.21731141 0.14047039 0.09675538 -0.0858051 -0.03087731 -0.1462212 0.027974024 0.14087145 0.038789153 0.13330346 -0.12999634 0.0049687456 -0.18506844 0.21399426 -0.31243423 -0.14759862 -0.16597942 0.46349818
50811932 0.2694018 -0.1165371 -0.12836795 0.1410572 -0.24804506 -0.24540965 0.3392043 -0.10420328 0.076098725 -0.0093246745 0.1465663 0.34453738 -0.116702735 0.040347803 0.19629763 0.2411629 0.18970712 0.095056064 -0.05012087 0.3173842 -0.32456 -0.07601526 0.5406655 0.254949 -0.3036468 0.10847456 0.2697973 0.4071073 0.0059296484 0.26837265 0.20217943 -0.11600799 -0.31339964 -0.13794395 -0.26282856 0.22667481 0.2299718 -0.36531624 -0.3205323 0.34088212 0.12467185 0.22712226 -0.13699585 0.058641702 -0.08094092 0.14153597 0.16369987 0.047565516 0.14826326 -0.032520555 0.18505388 0.14467041 -0.035238486 0.34585333 0.041095715 -0.0006874742 0.13168782 -0.003797014 0.08300195 0.16478746 -0.10497552 0.13840593 -0.32796466 0.2161715
86651903 -0.15305845 0.060402844 0.1308209 0.41606262 -0.19738883 0.1534866 0.070150256 -0.06376232 -0.040048085 0.37110466 0.34252554 0.029180245 -0.6367153 -0.22667119 -0.012399392 -0.09271876 0.12213609 0.18268204 0.42261088 0.19011526 -0.052467402 -0.009382899 -0.37943774 0.15426199 0.33267245 0.15195127 0.1118621 0.21208659 -0.07808544 0.42010963 -0.20601174 -0.20481372 -0.011679353 -0.062131163 -0.010909393 -0.15292916 -0.15369636 0.16825482 -0.13748917 -0.14622481 0.17026123 0.1726224 -0.075308144 -0.011264998 0.2575231 -0.06421008 0.12149657 0.20439757 0.07138085 0.12871191 0.00097094744 -0.17068005 -0.18702847 0.015994985 -0.14165783 -0.6423198 -0.020150503 0.085015915 0.03645118 -0.1624478 -0.19923156 -0.40137097 -0.14884627 -0.24419527
217160945 0.06711151 -0.011496566 0.18981133 0.24213032 0.067155845 0.0818198 -0.016633663 0.025198452 -0.20168208 -0.15485558 -0.21461095 -0.018747224 -0.037278093 -0.07509982 -0.0009837388 -0.17148735 -0.024746481 0.42866257 0.19726339 -0.003399202 -0.12553844 -0.10382169 0.23638353 0.1390793 0.0923607 0.11982469 0.294731 0.07954461 0.26950967 0.52656054 0.048792973 0.05814243 -0.69121355 0.015229302 -0.07703871 0.1387097 0.30894667 -0.108414225 -0.024887815 0.088123836 0.23912102 0.017328955 -0.023450151 0.32198742 0.33233717 -0.15240695 0.52668273 0.08745218 0.13330302 -0.1130237 -0.14927658 0.13295895 -0.07787254 -0.061055794 0.39962214 0.050287876 0.12287154 0.09345618 -0.3521483 0.10731678 -0.37876955 -0.21205877 0.06619379 0.19566886
205771054 0.013870801 0.27112725 -0.24277352 0.30735037 -0.13437296 0.061795432 0.23998989 -0.23907694 0.26344928 0.17771107 -0.32286912 -0.36395955 0.12556438 -0.13875632 0.07562427 0.0671154 -0.011894256 0.097755976 -0.050030176 0.027363058 -0.1284389 0.041619122 -0.033262074 0.2600562 -0.20212398 -0.2839735 -0.0340521 0.081148855 -0.25225484 0.205028 0.12874486 -0.29240528 -0.26309675 0.2024119 -0.059247598 0.107878774 0.14917411 -0.32002833 0.11557093 -0.37327787 0.30227655 0.15549707 0.16202943 0.40783405 0.27298787 0.21721889 0.34995008 0.24676943 0.053831406 -0.46937066 -0.20487542 0.23660994 -0.26210245 0.1298386 -5.7615165e-05 0.029647881 -0.0693352 0.06762095 0.031994518 0.08131336 0.114779934 -0.36873543 -0.20484677 -0.058557656
270712565 0.008558092 0.06530823 0.051912587 0.10328749 -0.18116108 -0.12144238 0.2335502 -0.12582135 -0.50398934 0.18924966 0.13131581 -0.045002095 -0.33492038 0.012233061 0.15631504 0.3437472 0.3179877 0.0018943284 0.030300206 0.06333947 0.049359806 -0.24845064 0.06789919 0.5335202 0.0010580964 -0.031832222 -0.27878383 0.4649953 -0.14236106 0.15159674 -0.18172903 0.11245554 0.06829131 -0.23257515 0.20774437 -0.13727148 -0.1432622 0.07383981 0.011674808 0.21264145 0.008043247 0.29319555 0.0030941188 0.305517 0.13626337 0.14986409 0.06495889 0.15113851 -0.2130222 -0.49245104 0.089654885 0.13540591 0.120128304 -0.17261946 0.1867093 -0.21495248 0.020128053 -0.23639998 -0.5126649 -0.28673068 0.10567092 -0.34466904 -0.14704119 0.23790434
30465594 -0.40261534 -0.13550055 -0.278568 -0.09865008 0.028042128 0.32825536 0.08666598 0.08034187 -0.07663767 0.204006 0.2979487 0.031446453 -0.06351097 -0.19178216 -0.017994901 -0.2854104 -0.18502259 0.05886416 0.14306079 0.09529953 -0.32087627 0.21362522 0.11675155 0.23470701 -0.06274071 -0.0017578314 -0.39225966 -0.19609277 0.15129063 0.35443783 -0.15912966 -0.120407134 -0.27012566 -0.23857342 0.08501708 -0.011454183 -0.35132214 -0.44486383 -0.4417219 0.2437134 0.0070477496 0.014639962 -0.29482105 0.21294583 0.2693639 -0.18219283 -0.059069198 0.44723853 -0.10952677 -0.2398646 -0.010812525 0.18264857 -0.015503372 0.07671047 -0.09066965 0.029799921 -0.08601864 -0.25119722 0.1978043 -0.0423335 -0.19038944 -0.13017109 -0.2808273 0.25218776
262172582 -0.015418853 0.0018807161 0.20225775 0.25246868 0.11130273 0.03598388 0.14093131 0.24476393 -0.052171055 0.33375347 -0.13083024 -0.115405895 -0.31741044 0.0017018728 0.13875225 -0.30286857 0.021811374 0.03381005 -0.20359406 0.012824294 -0.12772267 0.05590409 -0.15230793 0.33916423 -0.27657413 0.26540968 0.13889246 0.138343 -0.1243151 0.18942483 0.20667446 0.26829287 -0.19860734 -0.13103378 -0.04008004 0.13935997 -0.02928723 0.032239236 -0.2920526 0.011424565 0.17671196 -0.103387326 -0.15121682 0.29182974 0.22752944 -0.059697237 -0.06374681 0.34709334 -0.023109166 -0.5968786 -0.010224421 0.08552983 -0.12561435 -0.040793717 0.08485291 0.011838998 -0.22468488 -0.015615102 -0.34995052 0.08562484 -0.11289706 -0.04353236 -0.18342876 0.54602
129718692 0.32930595 -0.21280293 -0.123121545 -0.12852466 0.100842334 -0.076294154 0.024972236 -0.29766834 0.033917896 -0.060376845 0.19478883 0.00737933 -0.57051414 -0.34146187 0.31734687 -0.08174578 0.08017959 0.27099514 0.15500341 -0.016060786 -0.18963322 -0.03393441 0.118947834 0.069385104 -0.055571232 -0.26656017 0.21185167 0.25550297 -0.24781905 0.2051156 0.1505546 0.2504055 -0.16732493 -0.24127923 -0.27696586 0.013174701 0.3608176 0.08140949 0.049912836 0.19904512 -0.08729889 0.38710198 0.12743412 -0.13344502 0.6581559 -0.30302778 0.2683778 0.20577127 0.019962883 0.062422957 -0.18952352 0.13259275 0.14025842 -0.030786509 -0.31431413 -0.21598287 0.106421866 -0.05887302 0.117449835 -0.4669312 0.020723611 -0.47807294 0.1148639 -0.39746803
37367041 -0.03285289 -0.008307458 -0.28410292 0.2333116 0.037493654 0.06060386 0.087191224 0.23929231 -0.30576774 0.39547187 -0.007889481 -0.01805017 -0.34566623 -0.33355048 0.16767456 0.16832358 -0.16258146 0.36508963 0.31888512 0.12354511 0.09312442 0.15186718 0.11791666 0.1021359 -0.27134225 0.057978153 0.20340414 -0.05981287 0.03793195 0.4201958 0.29261193 -0.092928186 0.028469017 -0.3512761 0.013906079 0.22748472 0.10757926 -0.1846744 0.02148072 0.0862677 0.36534858 0.22230849 -0.1612377 -0.025211146 -0.14331026 0.04096278 -0.114234574 0.32948527 -0.11635837 -0.09025235 0.20098183 -0.017547287 0.39989716 0.17808874 0.020998327 -0.34083575 0.1657344 0.019344358 -0.17923108 0.06626965 -0.10121035 -0.2898888 -0.14591405 -0.21979772
119504238 0.31988645 -0.06830954 -0.10814653 0.3304817 -0.07633141 -0.1514957 -0.0175504 0.05422165 -0.30162895 -0.0890796 0.08851838 0.41476718 -0.29858014 -0.1756697 0.27768075 -0.1719358 -0.1683837 -0.14592451 0.014778582 -0.1796215 -0.4162142 0.25182682 -0.25753453 0.12644508 -0.11184988 0.12324145 0.15087922 0.14670745 -0.0011667614 -0.14813508 0.1278726 -0.15527421 -0.31803808 0.006030599 -0.1467413 0.50108075 -0.38906825 0.07380014 -0.039402932 -0.07510858 -0.019916505 0.31929088 -0.18042313 0.033000026 0.037500374 0.5394012 0.048624832 0.11825923 -0.5161042 -0.46879834 -0.11450823 0.09193319 -0.20683408 0.3680141 0.15261403 -0.33664912 -0.12593894 0.102824025 -0.20876643 -0.18433103 0.041191563 -0.053654213 -0.10244618 -0.07366165
159113258 0.20696294 0.03497842 -0.29094386 0.14330843 -0.10282297 -0.09781281 0.09163936 0.16144203 -0.1325736 -0.0018740748 0.020394359 0.24798566 -0.20071991 -0.20734991 -0.0882476 -0.21807447 -0.4881857 0.1096726 0.16362628 -0.2540976 -0.19755723 0.094378494 -0.14923306 0.5328518 -0.0013287644 0.23288828 0.07075902 0.031794123 0.21287803 0.04465215 0.22335085 -0.021563042 -0.14925238 -0.006199329 -0.27443203 0.16408609 0.080361746 -0.21441604 0.1610556 0.36298794 0.13494115 0.029864782 0.009988106 0.40284002 0.42502654 0.27379543 0.22201476 -0.12599704 -0.10713198 0.0811551 -0.027538793 0.056886185 0.22622725 0.34736946 0.085391745 0.08784823 -0.0105402265 0.056311175 0.15955691 -0.019627457 0.006917053 -0.0106150415 -0.18743508 0.16234823
96706848 -0.0614027 0.02965562 -0.10815777 0.296711 -0.20277968 -0.18425016 0.27693847 0.08613275 0.053096976 0.0936197 -0.4715526 0.25724983 -0.4176215 -0.3932904 0.14852488 -0.29555607 0.15044788 -0.167254 0.1298071 0.1989822 -0.30750513 0.0879013 -0.058994364 0.14995402 0.07139339 -0.20623575 -0.027732795 0.30730295 -0.11915538 0.13415377 0.2720592 0.07335675 -0.09389606 0.15813518 -0.29821116 0.0016887342 0.019387724 0.20640004 0.12599534 -0.19426882 -0.22393715 -0.17168765 -0.03780985 -0.33205712 0.1421526 0.020009309 0.19437872 0.50612044 -0.31960827 -0.0322549 0.32359236 -0.05734999 -0.61295295 0.0085734455 -0.09152509 0.285992 -0.020335317 0.13513567 -0.24424851 -0.34093174 -0.2024364 -0.10094802 -0.29138604 0.027401634
1323936524 -0.16379866 -0.057296474 -0.47704664 0.227245 -0.0074614417 0.21741621 0.14348733 -0.4504238 0.23090847 -0.17783837 -0.18299828 0.4160254 0.00045212067 -0.018306319 0.03673048 -0.16809219 -0.05365048 0.26836443 0.10819199 0.1604079 0.15842338 0.03201228 -0.08536296 0.03473943 0.06948082 0.019035425 0.23767164 0.15346564 -0.5542186 -0.14551842 -0.14234479 -0.33364722 -0.29395851 0.17220624 0.08071588 -0.09734256 -0.29232827 -0.19666603 -0.079988286 0.20483154 0.24133202 0.0021826534 -0.4467346 0.046019033 0.0922135 -0.057163306 0.28378385 0.4062059 -0.24875467 -0.1559032 0.68321306 -0.23430298 0.082440406 -0.054731105 0.27073818 0.20170791 -0.05188306 0.16929725 0.20888115 0.006157918 -0.5089316 -0.5559152 -0.092616186 0.20565526
244800486 0.07312889 -0.21453732 -0.09444134 0.4257712 -0.04971796 0.17079806 -0.03956456 -0.03680499 -0.19586466 0.05069731 -0.18519935 0.4471292 -0.28248534 -0.034607906 0.05555697 -0.28697982 -0.439859 0.26551542 0.10612029 -0.41689548 -0.26918617 -0.17499325 -0.32183525 -0.092124276 -0.47678283 0.09286324 -0.3293982 0.32157263 0.081503496 0.112242766 -0.057911072 -0.31893826 -0.33353356 0.37688664 0.1795079 0.2588433 0.06672827 0.19018012 0.2538613 0.26630506 0.29132897 -0.038053703 -0.5575019 -0.23423241 0.37986928 -0.29014128 0.13679127 0.26781577 -0.033088397 -0.059027646 0.39130628 -0.17935136 -0.18760782 0.13654412 0.1294814 0.05261067 0.123599626 0.12660262 -0.1674847 0.08229038 -0.18948278 -0.29128844 -0.1235047 0.15506221
263465785 -0.12550919 0.19404905 -0.4600291 -0.14012727 0.40276343 -0.64289796 0.24340089 0.14524004 -0.13622148 0.12217491 0.7353866 0.5482749 0.2620628 -0.030902741 0.047427088 -0.14015497 -0.13824368 -0.05342852 0.24347253 -0.07261449 0.13351962 -0.03190713 -0.01989239 0.49493656 0.32280686 0.07178385 0.35392785 -0.12394234 0.04295865 0.04942827 0.7764004 -0.28743526 -0.02012147 0.2891231 0.51026034 0.15857571 0.2291425 0.080669105 -0.03663135 0.19157232 0.39032504 0.31640092 -0.38743097 0.024130479 -0.024955502 -0.05361892 0.27119648 -0.028125241 0.21647635 -0.30208418 0.32266876 -0.16060926 0.1607901 -0.017238338 0.048105273 -0.15302798 -0.07224551 -0.08453822 -0.10714559 -0.20965558 -0.23823261 -0.1914676 -0.12299421 0.19778056
41514775 -0.21850397 0.04426839 -0.43020016 0.21533136 0.069426626 0.017599916 0.086436056 0.24825184 0.009663009 0.28974488 -0.11515623 -0.3169995 -0.21912138 -0.2444752 0.15939417 0.14258116 -0.008620034 0.3113517 -0.097467825 -0.083305195 -0.1272147 -0.058597084 0.0055478644 0.34652546 -0.046275515 0.06908478 -0.51390326 0.10708342 -0.19923925 0.13387477 0.22448325 -0.057729114 -0.18395753 -0.3217581 0.26992187 0.30450162 0.30847833 -0.06886896 -0.31073976 0.12463818 0.2984235 0.3052309 -0.044422105 -0.18072322 -0.06893548 -0.18470061 0.3194331 0.28966495 -0.232025 -0.21698457 -0.20809096 -0.08237614 -0.06934764 -0.19809522 -0.1500002 -0.14740597 -0.12976253 -0.22750536 -0.36553445 -0.14534506 -0.27008495 -0.39915892 -0.1103451 0.091665365
24423418 0.21119669 -0.122417 0.4038192 -0.1347612 -0.29323107 -0.016389865 0.4081741 0.065753005 -0.08011451 -0.036884706 0.43807125 0.026108386 -0.05313429 -0.5379329 -0.3495599 0.045362756 0.039958008 -0.16560458 -0.27128035 -0.021945119 0.046002522 0.049263388 -0.35062286 0.04345625 -0.49869582 -0.1249827 0.03369897 0.3801723 0.14565895 0.48297578 0.16462582 0.39302015 0.059071563 -0.15353538 -0.045045096 0.2867698 0.29893464 0.112661496 0.04530539 0.012894883 0.4738912 -0.19053444 -0.2713892 0.018314518 0.41156772 -0.039842993 -0.21648641 -0.1562328 -0.3421262 -0.42754108 -0.082595296 0.030978257 0.19527823 -0.35452127 -0.0013786365 -0.27530196 0.035864122 0.16601528 -0.08891188 0.0043888125 -0.4717962 -0.066022195 -0.3592594 0.070396565
16812787 -0.09084868 0.087438844 0.12525399 -0.09915203 0.022593405 -0.20145755 0.32986084 -0.038750168 0.042444803 0.20304286 0.0780412 -0.04524169 0.1000399 -0.20263208 0.20876981 0.078919396 0.19950041 0.11626252 0.020009529 0.2357914 -0.11964715 -0.18717593 0.301034 0.254521 -0.5367303 -0.24374746 0.17107633 -0.0034016627 0.0016629426 0.6033048 0.2981973 -0.14388396 -0.19505678 0.08030174 -0.2767834 0.35621247 -0.0585896 -0.2215185 -0.5133374 0.19193003 0.16392745 0.07721073 -0.26809543 0.15607563 0.26181784 0.13229193 0.054808024 0.28208005 -0.114568934 0.05487248 0.16732654 0.0034786384 -0.21108119 0.0340111 0.048094615 0.15557364 0.062256042 -0.33062366 -0.21105011 0.33419093 0.13701199 -0.101243906 0.0021387879 0.1789986
306582939 -0.119643986 0.20982821 -0.021344129 0.26552945 0.45221108 -0.20838445 0.05901713 -0.22894518 -0.24818137 -0.1864765 -0.17496426 0.14553845 0.120255746 -0.27437058 0.070210814 -0.2680235 0.033333216 0.21262679 -0.019001927 -0.088527784 -0.33163717 0.04359853 -0.045430887 -0.0053438535 0.36722034 -0.021784518 -0.28958198 0.08125237 -0.032552622 0.14099114 0.15438056 -0.4203683 -0.32987738 0.21046579 -0.3550353 0.013107265 -0.077210344 -0.18976967 -0.088667326 0.02747565 0.082679614 -0.08727321 -0.30658823 0.24726105 0.43827486 0.29123783 -0.16038246 0.242563 0.081880115 0.22607544 -0.16158228 0.41768676 -0.027185664 0.3434779 -0.10442886 -0.48608357 -0.09471398 0.1541575 0.17272775 -0.018909179 -0.33891705 -0.41192502 -0.25345305 0.043697946
64495435 -0.18529 0.19834544 -0.1315085 0.6016879 -0.07339228 -0.22153667 -0.09454982 -0.279157 -0.036204692 -0.21691692 0.025908247 0.12705235 -0.3305182 -0.26306757 -0.0806041 -0.24789222 -0.08483779 -0.04816129 0.18081127 0.016121347 -0.109462634 -0.058523554 -0.31214198 0.53907853 -0.040792763 -0.28118265 -0.12834932 0.06126562 0.037219506 0.120778985 -0.102112584 -0.49306822 -0.01681886 0.049356524 0.1790018 0.23056564 -0.20209107 0.031603996 -0.28130904 -0.045290034 -0.32893845 0.37523964 -0.033081718 -0.20470569 0.15196395 0.16808265 0.24384047 -0.19957161 -0.15198982 0.16037308 -0.1602407 0.3269342 0.013316651 0.04388857 0.363706 -0.12546135 0.36328053 -0.065049656 -0.26335534 -0.17970093 -0.23560582 -0.21904415 -0.40161723 -0.03213986
180188862 0.013076852 0.083234645 -0.2053574 0.17335334 -0.20402871 -0.3842582 -0.052378908 0.00967099 0.12508588 0.2201447 0.100848496 0.013769952 -0.3211567 -0.17641221 0.37946835 0.091922455 -0.3872031 0.05892339 -0.30581093 0.16642989 -0.08426622 -0.022987824 0.192505 0.11913305 0.011428554 0.22205892 -0.4363532 0.14770451 -0.27169767 0.14469138 0.5856574 -0.34686804 -0.22973236 -0.08727164 0.008838493 0.16007662 0.26475677 -0.1284829 -0.49543667 0.024232596 0.219413 0.008880017 0.28627324 -0.0072319955 0.17557208 -0.41434276 0.24734075 0.4568142 0.050872073 -0.40603918 0.15566817 -0.23271525 0.01630095 0.074613765 -0.13538542 0.4244527 0.23543175 0.30828664 0.08330578 -0.18716192 0.032526847 -0.04367718 -0.1779729 0.066743046
176326208 -0.1999511 -0.33647928 -0.37163758 0.16421598 0.16565348 -0.4018215 0.2650267 -0.21338369 -0.14272009 0.25280008 -0.025995916 -0.16068159 -0.53998834 -0.4630664 0.091493145 0.29300582 -0.08880469 -0.107293546 -0.33481672 -0.13985537 -0.1355134 -0.14832982 -0.09890387 -0.21666953 -0.17199354 0.009314185 0.31772456 0.24994662 -0.079853214 0.17823647 0.19817814 -0.08705523 0.21920191 0.063536935 -0.06148032 0.041116416 0.19105548 -0.06403708 0.038114317 -0.26975116 0.014209588 0.007969496 -0.30131048 -0.0957544 0.30006158 0.14523064 0.19356453 0.10553428 -0.18316115 0.22466432 0.08352548 0.12965423 -0.35002512 -0.11948808 -0.08831118 -0.30932316 0.15449013 -0.12513909 -0.22014026 0.3655474 -0.037743483 -0.34510192 -0.033715542 0.5538847
2155045712 0.110843524 -0.08688683 0.12789458 -0.003373208 -0.29447597 -0.4117442 0.025375713 0.3123738 -0.2879516 0.050876487 0.0774929 0.23357067 -0.17957059 -0.21470715 -0.26634228 0.18893316 -0.25464422 -0.15234087 -0.20790814 -0.30661288 0.6284718 -0.006655503 -0.16108574 0.1644696 -0.46622738 0.6123335 -0.0065372926 0.2678201 -0.21628441 0.20319818 0.34914398 0.007264379 -0.15957662 0.28157973 0.1552641 -0.030733136 0.39043638 -0.17206039 -0.20243654 -0.2871308 0.41047993 -0.03430484 -0.054810695 -0.0067000324 -0.019180901 -0.016870402 0.09480575 0.40714806 -0.17997551 -0.39028227 0.07214365 -0.07002662 -0.124395154 -0.31227747 0.45219433 -0.252456 -0.14311455 0.07641322 -0.01625797 -0.035563376 -0.27702573 -0.11278795 -0.19563755 0.23015386
153307097 0.05401557 0.0445788 -0.007718728 0.25158414 0.18072027 -0.07118627 0.013239049 0.09768378 -0.03843945 -0.28490293 0.13169827 -0.07109391 -0.3801317 -0.24880911 0.29658902 0.23638652 -0.31622842 0.05294846 -0.102667816 -0.3437984 -0.51518613 0.054437328 -0.12693647 0.16455247 -0.2575151 0.17739241 0.26103213 -0.3010806 -0.09576835 0.112370275 0.03559901 -0.3563468 -0.19627596 -0.3459239 -0.21556428 -0.07803297 0.045132868 -0.02179212 0.039834805 0.06955102 0.041472215 0.03011834 -0.21546154 -0.22041555 0.37014508 0.16884206 0.31201917 0.18363076 0.019016828 -0.33346212 0.24105772 0.22519873 -0.055398572 0.28642786 -0.014840646 0.19357099 0.2908849 -0.09859104 0.06125268 0.06493638 -0.06708495 -0.060856048 -0.10001844 -0.07979606
331283041 0.23429811 -0.030996623 0.12365223 0.392659 -0.102685206 -0.033420656 0.22807859 -0.5014929 -0.1286837 0.1733549 -0.009013495 0.32236275 0.036813967 -0.38910553 0.25320616 0.34026206 -0.3728648 0.22599842 0.14407934 -0.04924669 -0.03567053 -0.13582148 -0.017790863 0.33945844 0.18656118 -0.077572644 -0.37473625 0.016627619 -0.16396376 0.2914089 0.2805447 -0.34836298 -0.03858767 -0.26595372 0.15365338 -0.10422569 0.15848783 -0.4188335 -0.270765 0.00245964 0.2479492 0.13521934 -0.1257351 -0.027722793 0.23867467 -0.075348616 0.3940831 -0.07940787 -0.22590971 -0.0033442343 -0.19665596 0.11581562 0.13587561 0.171246 -0.05019098 -0.10428892 -0.21982996 0.47202313 -0.15387776 0.37340555 -0.032713216 -0.26224932 -0.22935128 0.11505769
186726223 -0.13247445 -0.5127743 -0.3939132 0.29444405 -0.08576564 0.101747714 0.30177873 0.0035889822 -0.18849355 -0.07888449 -0.051458713 0.2849422 0.13387685 -0.4657488 -0.064493716 -0.104282044 -0.017933859 0.09373917 0.018143224 0.2286304 0.036520083 -0.0057965983 0.06820164 0.17895685 -0.2751998 0.098296314 0.16727051 0.04043654 0.17022741 0.10539302 0.08256259 -0.11771583 -0.37558988 0.027251212 -0.28815338 -0.028375702 0.35238662 -0.2259366 -0.098101765 0.1427066 -0.26090908 0.19152674 -0.2652811 0.10188122 0.38710287 0.10757176 0.20300807 0.5132618 0.026167355 -0.04318437 -0.27337041 0.046080496 -0.02172932 0.4238297 0.2525124 0.0076081487 -0.030511657 -0.44536516 -0.14309755 0.019186122 0.06090434 -0.24805489 0.14040896 -0.0103076575
1364408940 0.021960218 -0.015414334 -0.06390303 0.07497569 0.25814047 -0.33564812 0.12160826 -0.20707452 -0.006700098 -0.32795942 0.017170949 0.13082057 0.029964292 -0.22014475 0.13957605 0.20876063 0.0836424 -0.2662248 0.19420739 -0.41093233 -0.09703111 -0.0042890045 -0.36758298 0.30465916 0.04785349 0.14050408 -0.017116038 0.49553308 0.013167063 0.34180397 0.04306933 -0.00017790869 -0.26888448 0.021475833 -0.05708143 0.12530616 -0.29311946 0.28267077 0.0035119543 -0.15003926 0.4858722 0.37209496 0.18498656 -0.11836877 0.16797937 0.21509002 0.60582906 0.31282133 0.23991115 -0.19262266 0.013049978 0.25857016 0.15942883 0.0061169225 0.044242214 -0.13146345 -0.39984334 -0.120335795 -0.52263516 0.025562206 -0.34470114 -0.2950739 0.07352936 -0.030734861
416814339 0.16148457 0.4972296 -0.028202003 0.27596343 -0.026749877 -0.40769118 0.31834692 -0.3654424 0.03207994 -0.36937207 0.3687154 -0.33171636 0.31205535 -0.19435583 -0.1143798 -0.19670285 0.19533974 0.14861093 0.04935682 0.07000836 -0.27213094 -0.339185 -0.32799795 -0.026268072 0.32530525 0.04788997 -0.16749343 -0.10802485 -0.14051342 0.3833405 -0.1946448 0.26588228 -0.12046006 -0.13157585 0.12850353 0.15502906 0.37245116 -0.14561844 0.23112667 -0.061117686 0.28805822 -0.08002877 -0.10855491 0.12830125 0.4264788 -0.04664582 0.2814916 0.06705738 -0.18609285 0.09782565 0.5617918 0.1774987 0.0067920764 0.31918827 -0.16255747 -0.015457024 0.52867 0.545121 0.013353369 0.34685922 -0.26439753 -0.47143066 0.15094747 -0.008686584
125408809 -0.028531715 -0.057898425 -0.08485613 0.1663238 0.30091676 -0.10896918 0.015120515 0.08276727 -0.14595315 -0.099298924 -0.26392156 -0.3027294 -0.28732723 0.3265349 -0.047963765 0.025301479 0.034171786 0.18092312 -0.077230334 -0.08906375 -0.26684937 -0.10864343 0.21737012 0.4033274 -0.25932252 0.07068021 0.007845782 0.28918067 -0.057114247 0.11338217 0.23396467 -0.22026473 -0.455523 -0.1989008 0.03893184 0.100357495 -0.101033196 -0.09655517 0.040622216 0.060100418 0.2082005 0.03145173 0.12300063 0.3690049 -0.02320712 0.10661768 0.24513994 0.13564898 -0.4158548 -0.4093248 0.25384143 -0.17615955 0.15758477 -0.05456191 0.29944867 -0.50476724 0.122848436 0.00010008125 -0.14866462 0.06875177 0.05132752 0.07616676 -0.47209212 0.0011687384
82302496 -0.2357964 0.050702903 -0.033303924 -0.23193553 0.2448307 -0.32953435 0.58007634 -0.19804825 -0.34605893 0.165941 -0.13964094 -0.22617953 -0.0114839 -0.38192636 0.24345484 -0.1812335 -0.16600187 0.007898018 -0.26576817 -0.10463098 0.33306327 0.050179206 0.22618498 0.2729618 0.07659632 0.09124417 -0.0016410442 0.0816446 -0.010551251 0.3317549 0.2635507 0.23439881 -0.0034457454 -0.15569189 0.09010924 0.43005866 0.32987216 0.28621295 -0.19013016 -0.057583388 0.13552085 0.15176655 -0.12484939 -0.13537042 0.38108978 0.20872724 -0.29430398 -0.15142585 -0.17856339 -0.15406954 -0.19330265 0.26520133 -0.41103286 0.22233574 -0.13679083 -0.01985691 -0.1903999 -0.17735116 -0.15008171 -0.12006751 -0.31976104 -0.5262087 -0.5037655 -0.089737765
364970961 0.18723813 0.018485831 -0.21141914 0.31052518 0.09162073 -0.041114267 0.20103417 0.050554328 -0.041095674 0.08833396 0.030755838 -0.20463458 -0.306684 -0.07552885 0.39856818 -0.20240049 -0.60885906 0.10862492 0.28466162 -0.024236958 -0.052938666 -0.018457167 -0.40967786 0.10960701 0.09514212 0.10055174 0.455712 -0.14588097 -0.27465615 0.3100137 0.17062604 0.31478393 0.08528092 -0.1466059 -0.15658377 0.03444381 -0.21342486 -0.09743629 -0.04096356 -0.024299419 -0.1390381 0.20524406 -0.21935591 0.10935713 0.55238235 0.21753815 0.4848538 -0.1311057 0.32814202 -0.3259704 0.035891782 0.33508334 0.14304577 -0.10154481 0.23270981 0.06857999 0.67003477 -0.15290642 -0.090055525 -0.08655056 -0.30251378 0.16105126 -0.4513256 -0.4014842
133338415 -0.0021874981 0.20830426 -0.06335768 -0.32297033 -0.043978777 -0.38298 0.121476725 -0.4031604 -0.21321009 -0.476958 -0.43108374 0.027841134 -0.13192278 -0.43858173 0.038704913 -0.16263215 -0.07607239 -0.22359578 -0.05662874 0.12216479 -0.44244903 0.017613728 -0.12219502 0.57879865 -0.0066018365 -0.027150396 0.03796597 -0.2740893 0.13013276 0.18606953 0.13583334 0.231513 -0.12571602 -0.5153178 -0.22469184 0.16325657 0.1118796 -0.36758745 -0.3970749 -0.3380155 0.021626761 -0.13686627 -0.16670178 0.11745058 0.32812145 -0.14646131 -0.11016321 0.42942768 0.20240586 -0.085010804 -0.010722494 -0.15367098 -0.11586921 0.26922286 -0.17896187 0.016502652 0.53164375 -0.31077638 -0.12670945 0.00051680696 -0.015789807 0.06322942 0.019545246 -0.07949537
935368368 -0.11206753 -0.16645165 -0.31973952 0.24130283 -0.07095769 0.16386591 0.20553815 0.2948967 -0.40015057 -0.067848176 -0.054247726 0.14943483 0.14659932 0.1810458 -0.17219687 -0.35819516 -0.006482674 -0.025947083 0.006134628 -0.07938276 -0.059454598 0.18198776 -0.23306486 0.19020115 -0.24925722 0.35197002 -0.2664273 0.36943606 0.13495465 -0.10047036 0.13784903 -0.025185306 -0.6150806 0.16907118 -0.14411154 0.33715823 0.16568296 -0.069780625 -0.16176423 -0.121996716 -0.072696045 0.08118985 -0.41519445 0.029385932 0.119525805 0.3544157 0.17406648 0.33055735 0.1037402 -0.32182172 0.31044048 0.083774425 -0.21219392 0.24506673 -0.025135895 0.052862126 0.29583442 -0.1838404 -0.11498883 0.26355883 -0.06980927 0.08938574 -0.5089568 0.2638804
98576365 -0.041931827 0.20623401 -0.7053095 0.013738934 0.0005364188 -0.30332246 -0.1670018 0.004562105 0.033523027 -0.34573713 -0.094746426 0.076445915 0.33049962 -0.19448677 0.17299525 0.2243373 -0.15854268 0.28020376 0.04529139 -0.10316311 -0.019892354 -0.09103697 -0.38395777 0.09186435 -0.37065285 0.08885804 0.01312615 0.089716405 0.4696096 0.25453025 0.22843154 0.09079401 -0.24278422 -0.3866147 -0.22373074 -0.06761846 -0.19186337 -0.47359154 0.1760677 0.017071754 -0.23165277 0.14220214 0.032793056 0.10321947 0.5197981 -0.21693845 -0.25159207 0.65804607 -0.23510809 -0.2693507 0.115399525 0.32134813 -0.2359095 0.21086323 0.48040745 -0.0953252 0.010752775 -0.12473422 -0.082402915 0.07590185 -0.01053463 -0.14452167 0.15011422 -0.05536138
87874905 0.14111829 -0.11135252 0.2239066 0.17299815 0.13175967 -0.25032565 0.5146489 -0.30894104 -0.23908493 -0.04762175 0.0029848167 -0.16497687 -0.6212623 -0.26322743 0.13826741 -0.09012082 0.021710573 -0.3697488 0.20000352 0.22604372 -0.043854956 -0.03126824 -0.12755914 0.19024368 0.12206734 0.10631716 -0.030376675 -0.22846885 0.19901817 -0.3763497 0.31555533 -0.29663482 0.14163764 -0.22748034 -0.20357676 -0.26901165 -0.18708676 -0.15409689 -0.10430801 0.008413768 0.07258508 -0.15628701 0.07807609 0.37591666 -0.057498276 0.19532931 0.28588575 0.23952146 0.15027879 -0.44411916 0.61126876 0.08165292 -0.23886377 0.13293163 -0.14122474 0.36310488 -0.092496455 -0.31116518 0.2558062 -0.16948262 -0.23501141 -0.28095838 -0.34867525 -0.07056869
37053861 0.09763863 0.36442038 0.041621707 0.09176151 -0.024754714 0.20124799 0.2544926 0.23825167 -0.118640356 0.49250963 0.17821121 0.27084088 -0.04140914 -0.3088217 0.37734005 -0.32296938 -0.38106456 0.29800805 0.08981666 0.22259401 -0.09658152 0.012929393 -0.3154337 0.17257872 0.34990722 0.37045714 0.061563216 -0.09260616 0.1953735 0.23597743 0.26155573 0.064691044 -0.17342852 0.039045356 0.20927526 0.027410422 -0.30331323 -0.015779855 0.13006309 -0.09489156 -0.16443643 0.36215466 -0.18445429 0.215202 0.36012134 0.14132072 0.42504016 -0.074021384 0.08108855 0.10455514 0.025200943 -0.26641202 -0.028271325 0.041773595 0.053777397 0.14628117 0.27588224 -0.0830856 -0.2652115 -0.13533442 -0.29611394 -0.6664705 -0.18810415 -0.12980126
34722543 0.15926766 0.04731817 0.06599777 0.010651292 -0.021755 -0.08863727 0.07431848 -0.18587488 0.26402387 -0.31014407 -0.0072906706 0.36701316 -0.30841234 -0.34284875 0.13787341 0.033119116 0.06956825 0.44604313 -0.018945228 -0.009716064 -0.039000023 -0.17385326 -0.016298631 0.07989303 -0.31149518 -0.119549654 -0.10189111 -0.14089955 -0.3849972 -0.12919472 -0.076347895 0.28742614 -0.37483436 0.42005616 -0.10151096 0.2014861 -0.14248139 -0.12971991 -0.26125544 0.0070556775 -0.10844655 0.33135384 -0.39173955 0.26077077 0.19114673 -0.25639078 -0.19114731 0.40689826 0.0022262959 -0.06034145 0.03619371 -0.07467554 -0.31820223 -0.15090352 -0.3770809 -0.26962 0.21783933 -0.17665148 0.25199765 -0.2023822 -0.21257514 -0.21453585 -0.290491 0.43318027
77115378 -0.088472135 0.41062537 0.029362127 -0.06973766 0.039373867 -0.020658197 0.31174418 -0.17028205 0.07633374 -0.17628923 -0.1886878 0.44577357 -0.590341 -0.17255698 -0.24803475 -0.11835726 -0.12955637 0.24884759 -0.49664572 0.44845507 -0.282216 -0.020852117 -0.16673502 -0.27514258 0.22807914 0.15051931 -0.17835893 0.18461885 -0.0679299 -0.054402053 0.06322178 0.18742801 -0.105285466 -0.1212126 0.32121688 -0.011090433 0.023396216 -0.21551298 -0.06984512 -0.025604721 -0.22341833 0.19945525 -0.18796057 0.040802155 0.25767007 -0.058646683 0.17832698 0.3924808 0.1958379 0.14288573 -0.006802442 0.08399358 0.096995905 -0.28089815 0.23693693 -0.28481779 0.29822633 -0.009247419 -0.11061429 -0.007174109 -0.5274076 -0.37355953 -0.44456223 -0.23182067
134653235 0.2575158 -0.010064062 0.20091574 0.103734195 0.1350057 -0.007231556 0.021537729 0.077145934 -0.3500954 0.13850018 0.29023015 0.075486965 -0.4380094 -0.09636037 0.39740017 -0.4003274 -0.050796542 0.3639709 -0.041853108 -0.14487147 -0.15955573 -0.30395323 -0.051534753 0.33160514 0.019234875 0.12199949 0.024908386 0.59965646 -0.049692456 0.053130656 0.23911059 -0.0050480063 -0.015045612 -0.06227446 0.21281178 0.03762287 -0.1880981 -0.39122725 -0.07723736 0.085707344 0.10186015 -0.06735692 -0.13644056 0.08377183 0.17164025 0.13934556 -0.033538997 0.42092457 0.14495064 -0.0705422 -0.13447551 -0.049315277 0.03276036 0.2180448 0.23048931 0.21429276 0.19723843 -0.2729259 -0.22575642 0.3015667 -0.2340608 -0.2866287 -0.26278225 -0.16222408
162281048 0.21940888 0.7346595 0.001970494 0.09588417 -0.17940938 -0.4328105 0.2207765 -0.23661982 0.11031694 -0.058838796 0.10345429 0.45019543 0.24948405 -0.71922785 -0.013868004 -0.054958474 0.030209726 0.26879793 0.019044805 -0.016194953 0.4034777 0.19797608 -0.10444201 0.4271331 -0.027709708 0.16755643 -0.019556794 0.60741675 -0.33384252 0.009401481 -0.2906279 -0.24023753 -0.114713 -0.19767286 0.44697654 0.380987 -0.05542626 0.24212472 -0.06421452 -0.5071448 -0.08377686 0.30076918 -0.3166667 -0.004238557 -0.001960425 -0.3401288 -0.03180938 -0.06586783 0.18881921 -0.32691973 0.17927292 0.5168116 0.17990945 0.14718936 0.2109774 0.053193916 0.13420138 -0.02389319 0.3688367 -0.52756184 0.024896856 -0.4730457 -0.56361085 0.22949526
231550159 0.076443896 -0.01900505 0.121138304 -0.047429502 0.23320526 -0.044099595 0.22238486 -0.23268715 -0.049169276 0.23382275 -0.07284843 0.34331566 -0.22345287 -0.4253967 0.023684872 0.35569006 -0.31663352 0.48226234 0.11296685 -0.00543557 -0.21898498 -0.18174139 -0.385244 0.25795865 -0.33358055 0.030603835 -0.3289378 0.096689954 -0.059393544 0.33052933 0.17927481 -0.17819794 0.072638854 -0.43624175 0.34863657 0.42342988 0.06590776 -0.30988964 0.049653072 0.12386504 0.25607035 0.07490398 -0.20944197 0.4669225 0.0767444 0.09452447 0.22821568 0.16326632 -0.108536184 -0.35860682 -0.05125442 0.2577335 0.2655486 -0.03954685 -0.2337112 0.17912868 -0.13039665 0.11454694 0.24912634 0.13639216 0.018787384 -0.14340562 0.2549139 0.32002783
47506568 -0.0287459 0.113028556 -0.23013742 0.18964557 0.15667477 0.26138532 -0.021865498 -0.050959446 -0.3912977 0.19190465 -0.20916882 -0.102765545 -0.21860209 -0.14446445 0.18526284 -0.16562639 -0.19311957 0.29004154 -0.413343 0.50876987 -0.098052934 0.109745406 0.06402537 0.06378506 -0.44967675 0.33126423 -0.36524725 -0.022867363 -0.05536537 0.34963474 0.40423822 0.121358044 -0.07259353 0.077784546 -0.12704274 -0.1810926 0.0342474 0.042148817 0.13329114 0.17428946 0.16794384 0.387472 -0.41127694 0.20088644 -0.07098621 -0.006899737 -0.13023916 0.4370536 -0.083620995 0.13019001 0.24214494 -0.049907435 0.29597455 0.11422534 0.026494894 -0.07227739 0.15634848 -0.030054688 -0.37051213 -0.2471551 -0.23095213 0.17603797 -0.1927316 0.21371725
179119388 0.40273258 0.054377705 -0.40244856 -0.1220016 -0.13124967 -0.08134983 0.62546504 -0.09470791 0.24178717 -0.51488405 0.2607639 0.25889936 -0.3584415 0.3219897 -0.19058433 -0.10975956 -0.21686754 -0.09742577 0.42403686 -0.056900397 -0.013774754 0.06279637 0.4424809 0.16821542 -0.06984686 0.4498061 -0.11118665 -0.010139199 -0.3415176 -0.14595272 0.1172631 0.30653143 -0.017004246 0.18515016 -0.23472944 0.5210551 -0.15786472 0.087687396 -0.17224652 -0.26277307 0.050938956 0.41495672 -0.41669807 -0.030346293 0.31428066 -0.09977069 0.43206313 0.10981651 -0.2570647 -0.11399412 0.012337888 0.10464186 -0.29570353 -0.47369954 0.1702771 -0.39756432 0.12735024 0.39011556 0.12976587 -0.26940238 -0.2622179 -0.15162623 0.0039736326 0.47083586
62203990 -0.12084788 -0.084444776 -0.051187802 0.07491246 0.32684237 -0.09173504 0.40860823 -0.17031924 0.042633053 0.10312844 0.33014292 0.121505395 -0.2270908 -0.12315615 0.079010345 0.11156286 0.3046895 -0.014836196 -0.36773178 0.13538612 -0.085709445 0.14700349 -0.31398302 -0.041669924 -0.33640575 -0.16542317 -0.22331247 -0.12947598 -0.26483813 0.08833699 0.37254187 -0.22326182 -0.20973137 -0.112261005 -0.06854524 0.39288607 0.001735756 -0.4726838 -0.3229318 -0.12819004 -0.21049386 0.3816025 -0.24689156 -0.060210966 0.49460125 0.24695587 -0.24581657 -0.027046902 -0.094111644 -0.09996992 0.1071058 0.38093278 -0.0066634305 0.09794609 -0.050210353 0.049672168 0.096947834 0.070930265 0.26044387 0.17750216 0.04439467 -0.050718114 -0.5273899 -0.098483816
356859571 -0.1662791 -0.05703289 0.03856643 -0.31914654 0.1967735 -0.25217572 0.2230024 0.027796913 0.057589646 -0.014604311 0.19222136 0.1320174 -0.0752632 -0.25273684 -0.31341046 0.3544359 0.041066483 0.15766405 -0.093822405 -0.48201635 -0.29187587 -0.38128763 -0.52954173 -0.07351828 -0.14073536 0.17818852 0.33494058 0.29641744 -0.2719186 0.43679467 0.15611765 0.17076308 -0.31687936 -0.22813362 -0.099425755 -0.06152344 -0.05081082 -0.04730953 0.17870797 -0.26263422 0.12176904 -0.35444486 -0.029335717 -0.18670678 0.100753576 0.23745175 0.3479969 0.34389254 -0.016708495 0.017619584 -0.29667285 0.0050441497 0.1810689 -0.020041803 0.7428373 -0.40379816 -0.11359073 -0.1346716 -0.12669212 -0.23409836 -0.105670184 -0.14152783 -0.42039248 0.18605955
58673299 -0.3883938 -0.0143943075 -0.026747128 0.37853333 0.3136271 -0.16765445 0.23911972 -0.06968728 -0.060306825 -0.2710277 -0.29809272 0.020578275 -0.39969245 -0.19685647 0.47523353 -0.058333766 -0.043212894 0.16819037 0.048927177 0.19494171 0.26649138 0.27659625 0.10454575 0.23028173 -0.07451319 -0.09996974 0.077463776 0.116534874 0.035555325 0.12220468 -0.16760887 -0.004044546 -0.23965073 0.13117906 -0.10165688 0.20805882 -0.05336932 -0.2065572 -0.34732646 -0.41715154 0.4340834 0.07373002 0.14172511 0.5825584 0.14393164 0.27436274 0.15695953 -0.06830192 0.04261473 -0.4153359 0.046597455 0.20284332 0.06278794 0.2975064 0.018458908 0.13626756 -0.00087666826 -0.49623853 -0.46472707 0.107662156 -0.36684623 -0.22056162 0.038438175 -0.10157683
116485600 -0.167966 0.21797775 -0.13710555 0.42509547 -0.34386468 -0.2470132 -0.2195583 -0.4322311 -0.18798737 0.029087005 -0.04053399 0.5847384 -0.52210915 -0.31542057 -0.1750427 -0.21383266 -0.3510164 -0.03895045 0.21023975 -0.09435191 -0.53357416 0.09838197 -0.07788137 0.4239544 -0.25548854 0.06831243 -0.2958831 0.2906428 0.060712546 0.20562872 0.0516621 0.13412634 0.15950793 -0.31538603 -0.05066688 0.1943367 0.13179937 -0.20601925 -0.23752399 0.18578194 0.122135125 0.12961613 -0.14765403 -0.028406966 -0.42205507 0.05405209 0.3467731 -0.12899968 0.034827597 -0.2896384 0.011684658 0.26672804 0.026307479 0.2538985 -0.15170865 0.011867837 -0.17437156 0.0784661 -0.27819043 0.001553323 -0.111397386 0.12380744 -0.021089654 0.08548393
24838521 -0.3215492 -0.22433731 -0.025670595 0.19372584 -0.3386016 -0.21975264 0.10039824 -0.0010724538 0.065557644 0.31880584 -0.11530611 -0.05074335 -0.020947369 -0.216999 -0.038318094 0.21509492 -0.38392136 0.08249968 0.21903871 0.037007935 -0.080186285 -0.20848162 -0.1427439 0.21967782 0.2478826 -0.14739607 -0.00811093 -0.032181 -0.028105855 0.07178048 0.6964747 -0.025624046 -0.41957736 -0.25750074 0.021413725 0.2301243 0.33389118 0.04131914 -0.061211348 0.02974496 0.011371021 0.28776854 0.0032086598 0.0050701806 0.1001602 0.01323315 0.24405758 0.26035193 0.057949916 -0.2822092 -0.0575051 0.34320045 0.13327298 0.4012676 0.109974034 -0.1283046 0.3279672 0.4882784 0.33769995 0.17416029 0.036009274 -0.22599386 -0.06497915 0.4183069
143203547 -0.15594283 -0.10392615 -0.4793293 -0.08373117 0.3112536 -0.094661914 0.5033969 -0.12913965 -0.21084276 -0.035629634 0.009485987 0.32283166 0.024500849 -0.04059693 0.16244455 0.14878638 0.02399655 0.2585589 -0.35068974 -0.29856944 -0.2533177 -0.23240295 -0.27070138 0.019644164 -0.53758246 0.102918066 0.39031145 -0.14306043 0.055388678 0.21503137 -0.018879265 -0.048175808 -0.22330901 -0.1968551 0.02038749 0.14448278 -0.032690823 -0.20540571 0.35421172 0.22101453 -0.13951255 0.18632992 -0.366899 0.104162306 0.30367687 -0.001218537 0.19295175 0.44141528 0.17355819 -0.31759936 0.08815567 -0.12808757 0.14474362 -0.04868671 0.13072187 -0.038503367 -0.057866078 -0.14750868 -0.114136435 -0.06178993 -0.106714614 -0.11444519 -0.11882766 0.0821262
25015718 -0.013966222 0.14139017 0.28754494 0.40630108 0.26478353 -0.467733 0.12343422 -0.034343995 0.01760344 -0.1090352 0.23448524 -0.23290044 -0.19309035 -0.119891234 -0.23211764 0.022875227 0.026659727 0.23109421 -0.17149869 -0.31267202 0.07886678 -0.11771256 -0.20523512 -0.10077353 -0.29803905 0.25723264 -0.36639026 -0.15949252 -0.21439368 -0.25042406 0.027512833 -0.23929375 0.14388041 -0.09069308 0.1885057 0.29438925 0.22845301 -0.40704033 0.33923578 0.26332107 0.28389215 0.44560003 0.01819436 -0.10786499 0.12456057 0.03798967 0.60297495 0.63144743 0.08865645 -0.38720348 0.14319335 -0.32776496 -0.0937963 0.08092936 0.029088842 0.14953756 0.18449818 -0.1554009 0.010835365 -0.19241455 -0.15619276 -0.52589995 0.2111098 0.29186904
309516587 0.17667964 -0.13889688 0.123518854 -0.059848405 -0.0052489573 0.1315237 0.28298348 -0.14092265 -0.42391506 0.2688929 0.2277061 0.1713887 -0.3831515 -0.4424241 0.5846838 0.0825909 0.3521807 0.18360013 -0.0031752326 -0.23796669 0.06832886 0.17888463 -0.069772325 0.33820137 -0.36618504 0.14328764 0.04580211 -0.2453711 0.14644204 -0.08967767 0.11351462 -0.042305365 -0.011938648 -0.035329457 -0.0044276747 0.35273102 0.465948 -0.4037001 0.27351844 0.27622235 0.345883 -0.081206664 -0.04307392 -0.114132404 0.46579805 0.10347037 -0.11257057 -0.32998526 -0.62291306 -0.12546867 -0.1746608 0.04194059 -0.1430136 0.44261032 0.00012885513 0.07859639 0.2968286 -0.35999772 0.13864651 -0.21365584 0.029946493 0.0037682762 -0.4295521 0.34060377
150846769 0.17058629 -0.20568319 0.13484289 0.46075672 -0.04900896 -0.27611452 0.36830038 0.15965971 -0.69933766 -0.07482354 0.12685348 -0.061564088 -0.27726248 -0.36876556 0.09149297 -0.15941072 -0.25760192 0.022332462 0.5384369 0.29096663 -0.2368911 -0.0032598274 -0.062545724 0.039088555 0.15516374 -0.1798103 0.29350677 -0.13488674 -0.14014274 0.10527548 -0.2303203 0.04552777 -0.0402172 0.09616489 -0.5377567 0.27120277 -0.044181675 -0.38149616 -0.10365388 0.2946723 0.06476404 0.31483284 -0.07411339 -0.020401057 0.22288726 0.5382512 0.19289646 0.025277393 -0.33526868 0.0699269 0.1041526 -0.021283299 0.38738036 0.2477358 0.24888138 -0.056347292 -0.2282655 -0.11728374 0.3196206 0.081729494 -0.21026468 0.38645253 -0.10231153 0.25183675
28066436 0.274873 -0.17033353 -0.16912165 0.09642125 0.062955834 0.16527559 0.022785263 0.053255398 -0.20097473 0.10539578 0.4582888 0.0007702978 0.013405996 -0.31942403 0.20172302 0.6603441 0.37488163 -0.2850908 0.23231678 -0.06804272 -0.36413065 -0.17969552 0.122464605 -0.10991605 -0.25812387 0.025440628 0.2794286 -0.03418753 0.1417733 0.40698946 0.38196898 0.19567823 -0.12727231 -0.24913706 0.3474084 0.0040200003 -0.042577 0.15939093 -0.15456386 -0.18273716 0.41473737 0.23582579 0.054226406 0.23485243 0.15808485 0.29862475 -0.050048966 0.3563101 -0.1417098 -0.50610316 -0.121049665 -0.07897928 -0.15381786 0.21244052 -0.09051517 -0.047619294 0.013215846 0.10053559 -0.19206488 0.26942083 -0.2623055 -0.3805095 -0.3952882 0.2245553
133069590 -0.37871283 0.19936238 0.059293 0.19088745 0.076178186 0.24697259 -0.02729499 -0.13242634 0.06997026 0.005096293 0.5030411 -0.06527125 -0.2588624 -0.067019224 -0.013138995 -0.028960615 0.29585758 0.16230586 -0.21873516 -0.088101104 -0.052429378 -0.11149382 -0.05013451 0.09675826 -0.2559951 0.29047018 -0.13451776 -0.068908915 0.02895845 0.4075204 0.15643346 -0.09188203 -0.3578229 0.018787444 -0.5350607 -0.08817872 -0.15436193 0.08244312 -0.18912315 -0.08659 0.02683508 0.4162402 0.021058911 0.39461067 0.21879338 0.33825704 -0.020894136 -0.15919095 -0.024852766 -0.16335672 -0.44236195 0.045741033 -0.08126002 0.33962703 0.43648946 0.09158123 0.098603755 -0.10948446 0.043433417 -0.09661441 -0.2814427 0.041897006 -0.45898527 0.20663828
308973177 -0.20399389 0.29570138 -0.2745423 0.026119314 0.032409582 0.37452048 0.14187041 -0.0641009 -0.25160673 -0.004765709 0.3037543 0.22562325 -0.06680073 -0.046170775 0.023870807 0.100595854 0.37309626 -0.18541889 -0.027545756 -0.08184086 -0.11960722 -0.062367696 -0.14330414 -0.10660064 -0.62425804 -0.19145143 0.062621355 0.20943551 0.5289215 -0.052034 0.016506976 -0.045465503 -0.2747317 0.11847839 -0.055643152 0.02381085 0.6145001 0.14405522 -0.107495345 0.17922683 0.38327956 0.2748087 0.26899606 -0.383174 0.22652304 0.3309789 0.17389135 -0.037918553 -0.29546973 -0.040093 -0.117226094 0.020966444 0.18330121 0.06464939 0.43042704 -0.13446657 0.4256205 0.25173253 0.29931825 0.0008830583 -0.4929596 -0.25113997 -0.44973448 0.30892882
57698629 -0.16908409 -0.1878244 0.15410815 0.26915812 -0.19270219 -0.02851807 0.24609585 -0.060371555 0.005923648 0.118304186 -0.114171416 0.22482125 0.20095344 -0.50369835 0.3137278 -0.11216065 0.027244808 0.10878749 0.2682785 0.0034694783 -0.02419925 0.12241913 -0.16014512 0.4744488 -0.099260926 -0.21045813 0.038233392 0.0924695 0.062401973 0.7192812 0.30147135 0.12832545 0.20062931 -0.20760354 -0.22113444 0.24195175 -0.16572239 -0.052924607 -0.04369403 -0.25722298 0.018713597 0.0065335846 0.09395389 0.018835556 0.05499189 0.2507854 -0.008845571 0.51300186 -0.06881425 0.07021667 0.3324488 -0.10273703 -0.099116236 0.0007861099 -0.07705805 0.05049911 0.2700384 -0.1613059 -0.0059236917 0.09007529 -0.029488241 -0.23362666 -0.11821415 0.07505981
252238212 0.08336094 -0.22196013 0.1878626 0.13220143 0.24712726 0.088398896 0.04478931 -0.059654284 -0.5061031 -0.014233416 -0.1475722 -0.24760479 -0.42110854 0.08815291 -0.31597278 0.13543715 0.15921228 -0.2552644 0.16761328 0.0065260846 -0.02704156 0.049429484 -0.09735647 0.09902836 -0.2716008 -0.3112297 0.023673456 0.75455 -0.06330424 0.3461925 0.2412526 -0.29490367 0.03710449 -0.20040166 -0.30984783 0.17867884 0.16618267 -0.058684386 -0.3070321 -0.093722545 -0.09599773 0.007978884 -0.24678327 -0.1623728 0.04520062 0.0629767 0.49511 0.14415169 -0.5340734 -0.3033511 -0.2828226 0.2889932 0.012564908 0.25237426 0.14864166 -0.29570603 0.341874 0.042968906 0.26611853 -0.0064298757 -0.026231349 -0.26184332 -0.11877041 0.045706116
133881972 -0.54114974 -0.49151587 -0.13495345 -0.30127904 0.06686634 0.09141928 0.32790187 -0.3678491 -0.45301 -0.014550492 -0.11054967 -0.023655824 -0.2558983 0.1082571 0.015849026 -0.086254545 0.10006134 -0.12017816 -0.060870677 0.08548652 0.04816453 -0.072625026 -0.093602166 0.3946996 -0.3946102 -0.073508166 0.20552391 0.2754865 -0.40496075 0.33238003 0.19886146 0.06738914 -0.041635484 0.28638202 0.14290038 0.5643273 0.049845308 -0.4502923 -0.26780516 0.014052037 -0.020193648 0.36118177 -0.2884327 -0.011954709 0.20658481 0.18557025 -0.0073827812 0.012231326 -0.20631924 -0.23041604 -0.26407066 -0.05525526 0.13591331 0.32624266 -0.31405532 0.09920377 -0.027391173 -0.23403163 -0.008184247 -0.2199833 -0.03290687 -0.503161 0.025569236 -0.04700841
237073728 -0.11384975 0.37481892 -0.21553953 -0.033734996 0.2769256 -0.061784305 -0.45153084 -0.31827664 -0.08311799 -0.36149806 0.014149512 0.08783316 -0.10892951 -0.46852875 0.21825257 -0.29438385 0.06233316 -0.110508844 -0.1814241 0.5197836 0.012197736 -0.1386884 -0.28561062 0.35536373 0.019682584 0.29290766 0.06437826 0.026480911 -0.5843073 -0.017226674 -0.10313393 0.000112013426 -0.23711151 -0.35344294 -0.17419595 -0.6878145 0.45386654 -0.2369241 0.28682774 0.31522903 -0.0044515077 0.162985 0.17347212 -0.032732 0.12800428 0.08865589 0.10132209 0.49763718 -0.41198993 0.31821966 0.15799223 0.1268939 -0.28708065 -0.077203974 0.08726588 -0.30271095 -0.07455984 0.059800718 0.02677207 -0.14717758 -0.21364684 0.03227622 -0.20525539 0.26450503
540983379 0.15447801 0.28786406 -0.22241922 0.46129385 0.3136689 0.3324441 0.034694295 -0.053953923 0.28505495 -0.10778775 0.051887784 0.39172956 0.13811417 -0.41983142 0.08560441 -0.20680314 -0.33613136 -0.25920072 -0.011979497 0.070998736 0.072526835 -0.19408925 0.17814714 0.11992101 -0.2734393 0.58900714 0.041251592 -0.033235196 0.10593008 -0.06380907 0.27248314 -0.27628013 -0.04211221 0.337991 -0.32627493 0.12598814 0.03256039 -0.07902868 -0.020032091 0.010740889 -0.06980506 0.26456174 -0.17746644 0.18497814 0.119922675 -0.14814098 0.2847085 0.6429499 -0.041142095 -0.23125273 0.25074157 -0.24934405 0.1365573 -0.16230331 0.33904886 -0.10118046 0.100476034 -0.17582008 0.26736978 -0.09286606 -0.112736546 -0.104942515 0.053058077 0.6222601
739921296 0.18211995 0.5209153 -0.08315753 0.15827559 -0.5390617 -0.11725309 0.19679303 -0.57552546 -0.07390149 0.062172256 0.04062974 0.16078842 -0.07168075 -0.038100235 -0.2677663 0.12952211 0.50704086 0.08654615 -0.03966562 0.15287916 -0.16349444 -0.10152978 0.13182226 0.25782076 0.45214868 -0.059659123 -0.30560082 0.17459486 -0.088983044 -0.12220407 -0.105019115 -0.0072967643 -0.36185935 -0.072130844 -0.17095812 0.1766407 0.08137484 0.08165334 -0.24737456 0.032115854 -0.25819126 0.36425117 -0.10137608 0.09071355 0.16924444 0.089696035 0.17158641 0.14405838 -0.34672147 -0.25377926 0.46457982 -0.33320487 0.27870885 -0.11284023 -0.07049675 -0.19491948 -0.037287254 -0.046798564 -0.17937425 0.25857535 -0.14711814 -0.28734958 -0.35618964 0.5109228
270689028 0.26101685 -0.104736224 -0.3354973 0.22984888 0.04795601 -0.009008896 0.12174067 -0.29105398 -0.51413924 -0.15855035 0.120518245 0.13930738 -0.105432436 -0.8057335 0.098268 -0.07945067 -0.085983835 0.019843435 0.37091812 -0.21706276 -0.059609465 -0.10292438 0.17015016 -0.21760349 -0.26958784 0.14106832 0.076150514 0.507816 -0.019829694 -0.053223323 -0.11128722 0.045579378 -0.11758205 -0.49588436 -0.27804205 -0.031336755 -0.054093797 -0.30267918 -0.18785062 -0.02785416 0.057317175 0.25951272 -0.19688134 0.27217898 -0.058553856 -0.04803691 0.069319695 0.07240097 0.008768484 0.23164167 0.15307799 -0.36091387 -0.11078179 0.21942632 -0.14258504 0.27154222 -0.063820235 0.053063326 -0.094663076 0.2508246 -0.48354313 -0.6717248 -0.068982385 -0.3112615
612792060 0.25871584 0.3140999 -0.42995706 0.33401778 0.1027171 -0.24906299 0.38625243 -0.19305699 -0.14224857 0.12868296 -0.06083392 -0.29295704 -0.2562347 -0.1261922 -0.09608465 -0.17983218 -0.530367 -0.24313538 0.3174076 -0.1539822 -0.0049932846 0.2230919 0.017761575 0.107356794 -0.2559324 0.050692312 0.06629425 0.28167194 0.22173813 0.5391462 -0.0056335665 0.039683245 0.07769758 0.071853094 -0.18774816 0.054532554 0.016569922 -0.11688981 0.095663846 0.3178146 0.25563478 -0.054763176 0.036829613 0.21455325 0.31827903 0.1830797 0.293277 0.22772837 0.08004667 0.43256852 0.26575854 -0.11303158 -0.11848322 -0.2670551 0.32349628 0.025730515 0.24690346 -0.08016547 -0.37784925 0.1454921 -0.032625694 0.2621251 -0.27499634 0.3618838
614024492 -0.22900471 0.27627152 0.12509964 -0.008894648 0.12144903 0.11343455 -0.2225882 -0.68615836 -0.03032078 -0.05504881 0.38297585 -0.36342683 -0.3079625 -0.16789958 0.2616893 -0.082101285 -0.092885494 0.09415259 0.19285564 -0.06585276 -0.09180602 -0.08734675 -0.27783325 0.072178155 0.16556467 0.22586799 -0.2256844 0.035598304 -0.42744863 -0.04993512 0.13281544 0.17039758 -0.7437556 0.25544938 0.067236386 0.016368227 0.16364925 -0.22894143 0.3994027 0.082636885 0.5196655 0.046518836 -0.25342584 -0.0049325405 -0.05228805 0.23301522 0.3034528 0.18353027 -0.06354096 0.29362887 -0.112341814 -0.11591473 -0.405032 0.07683444 -0.023634264 -0.008167915 -0.08926329 0.20384757 0.009042883 -0.27779067 -0.38646647 -0.22254786 -0.09823408 0.0035561752
133726414 -0.26033136 0.1671946 -0.09885272 0.09764437 -0.09804363 -0.11308313 -0.098007545 0.039402023 0.04419799 -0.35264045 0.29307646 0.24634854 -0.47108892 -0.09679141 0.0630375 0.08679685 0.17465994 0.735586 0.2711417 -0.25933978 -0.2014853 0.18345518 -0.15817071 -0.035540387 -0.5058092 0.014335889 0.135331 0.12802756 -0.51181185 0.006537859 0.3061523 0.09499696 -0.19316158 0.29978362 -0.058821436 0.4007836 -0.15667903 -0.12311664 0.19552301 -0.015977265 -0.40208542 0.36947706 -0.09303722 -0.18356001 0.11846546 0.25569308 -0.122744285 0.7472187 -0.10244014 -0.11750919 0.23398408 -0.0002492253 -0.21399595 0.015387455 -0.15298496 0.33596668 0.18156508 -0.1581342 -0.34682742 -0.4915767 -0.14278221 -0.042168226 -0.12343102 -0.20328267
284326648 0.06884648 0.12093483 -0.39360774 0.3818857 -0.3888346 0.031091703 -0.18056111 0.032511752 -0.0018271878 0.23977067 -0.08083376 0.30197516 -0.08134632 -0.1469804 0.1881599 -0.242974 -0.36104095 -0.2877435 0.096239775 0.2243361 -0.10443066 -0.3054173 -0.27227312 0.28826335 -0.060658436 0.074721225 -0.097344995 0.16113384 -0.54542965 0.103262976 0.17313997 0.30468133 0.21186674 0.052915182 -0.8784043 -0.24963076 -0.13671081 0.17322698 0.23608974 0.11932911 0.22626095 0.21216688 -0.0059139337 0.2102139 0.16491553 -0.06289899 0.7645737 0.13374335 -0.15549934 0.15070796 -0.121756956 -0.16652294 -0.119609825 0.2239409 0.0844033 -0.22528729 -0.23429492 -0.11785632 -0.0098800035 -0.28922272 0.14077269 -0.3717689 -0.28511834 -0.045253098
2242915207 -0.37332752 0.052120954 -0.10188505 0.09702616 0.011887693 -0.2862622 -0.09524249 -0.27784473 -0.019132921 0.010882946 -0.331747 0.07558172 -0.1945834 -0.16370615 0.10270144 0.009594318 -0.03081291 0.3360792 -0.013159201 0.46641174 -0.062355753 -0.1825886 -0.3207424 -0.16693947 -0.27729607 -0.25825742 -0.19607037 0.12271393 -0.24084198 -0.25031376 -0.39818975 -0.02647585 -0.19284764 0.10939431 -0.029594159 -0.06238724 0.00632621 -0.5568268 -0.15540187 -0.42816615 0.2214334 0.68385106 -0.097678 0.06285569 0.32775185 0.14306091 0.32504076 0.1140308 0.063862585 -0.323978 0.12076213 0.49856514 -0.3286542 0.060309872 -0.14598677 0.38718697 0.30848685 0.07101718 0.3951509 0.26202804 0.065862946 -0.20291458 -0.48791903 0.3315216
269552973 -0.048676144 0.19397706 -0.06723959 -0.17588955 -0.050533906 0.12201593 -0.12283045 -0.114570566 -0.1214914 0.5371925 0.29187688 0.07996698 -0.55950445 0.03517312 -0.15685965 0.1102023 -0.32496005 0.30040053 -0.065216236 -0.1457813 0.17792724 0.17572784 -0.08980317 0.08344967 -0.37658563 -0.067958444 -0.14878996 0.3294683 0.04472839 0.34578437 0.00181858 -0.274422 -0.121321715 -0.007607246 -0.053437695 -0.2673199 -0.04432381 -0.00084400387 0.6235381 -0.6956628 0.31093597 0.53988355 0.06703694 0.4162928 0.11670958 0.5247722 -0.12699194 0.42189816 0.12596357 -0.21505953 0.34801808 -0.03243172 0.05477215 -0.32865828 -0.088551946 -0.117498666 -0.24335337 -0.22649114 0.04287103 -0.1968434 0.034035243 -0.47234204 -0.34957278 0.12784366
807773480821395456 0.019689612 -0.17938149 -0.057194863 -0.12903823 0.10998436 0.01067209 0.3424615 -0.015515144 0.20409325 -0.116294704 0.10205667 -0.012600975 -0.21274304 -0.12434868 0.0132616535 -0.09214489 -0.046687603 -0.2059233 0.58531374 -0.6413066 -0.25038627 -0.13961335 0.4780624 0.2294153 -0.046573926 0.15148513 0.10459546 0.18713544 -0.052856605 -0.04438149 0.16560511 -0.0846404 -0.13139398 -0.048857316 -0.26385346 0.20035642 0.07848497 -0.13056834 -0.078788884 -0.51332957 0.5309416 0.3959747 -0.2932435 0.21569139 0.05687276 0.09362317 0.06255675 0.27929202 0.05717522 0.041755993 0.32578337 0.1446089 -0.13631018 -0.07366581 0.26953086 -0.66482955 0.3238586 0.22347413 0.06528006 -0.5770657 -0.13566042 -0.303579 0.16579315 0.1861134
66816759 0.061159797 -0.302442 0.41521162 0.015340268 -0.058625493 -0.16118379 0.23022263 0.2873433 -0.18927036 -0.10328054 0.007984994 -0.0699825 -0.3621792 -0.01059566 0.30358714 -0.17822972 0.18202981 0.27975196 0.33307338 0.72695357 0.06875028 -0.0020472577 -0.4745473 -0.18626794 -0.23532727 0.1988801 -0.02637476 0.4305533 0.19839226 0.20492156 -0.0071222186 -0.006828981 -0.32489187 0.2078223 0.12047439 0.032811977 0.23224273 -0.489846 -0.13323607 0.0032008896 -0.19124 0.41248935 0.31238347 0.20979524 0.26360917 -0.12459451 0.51582026 0.35266873 0.17815955 -0.17785169 0.15664157 -0.35464376 0.07811585 -0.18973061 0.27798903 -0.52468294 -0.13620245 -0.08320263 -0.14530613 0.14737833 -0.039971337 -0.40794048 0.23987521 -0.26863927
43658360 -0.05937845 -0.17008133 -0.05912524 0.18882008 -0.3183416 0.28985798 0.434109 -0.27540296 -0.033655353 0.13824722 0.3231708 0.117898725 -0.33852172 0.093015395 0.17036206 0.1023922 -0.069478266 0.1444574 0.32153434 0.3998337 0.095137075 0.07615627 -0.13943376 0.005899065 0.0011648509 0.108039506 0.113127 0.17524418 0.21151732 0.27197313 0.20212351 -0.29364067 -0.36252072 0.04032019 0.28054324 0.0983067 0.02376305 -0.15777503 -0.16805856 -0.039894465 0.4620409 0.35116827 0.31616548 0.2973654 0.23159482 0.02388058 -0.23588407 0.11642754 0.15590473 -0.2697107 -0.16019572 -0.24520196 -0.052126784 0.23841482 0.014516188 -0.0006502249 -0.019467538 -0.043968912 -0.22707829 0.31124863 -0.29459873 -0.11326568 -0.48814574 0.25897467
281649695 -0.17301418 0.5431766 0.03205137 0.3902249 -0.1289372 -0.06728579 0.087258436 -0.3685325 -0.02258957 0.016524058 -0.20694034 -0.21627179 0.27166435 -0.20101477 0.39860404 -0.5463055 0.1522608 -0.2211601 0.13396342 0.19543889 -0.43851507 -0.23028287 -0.12155916 0.58775234 0.31775784 0.026177425 -0.087613635 -0.37859532 -0.1129948 0.4435378 0.08090733 -0.17646773 -0.409245 0.15161724 0.09439007 0.18632114 -0.032575585 -0.37973452 0.18084876 0.026935108 -0.12603876 -0.28755754 -0.34171215 0.15276171 0.17256336 -0.010859984 -0.15741615 0.2995699 -0.13700795 0.17030028 0.20558114 0.13994388 0.014511321 -0.20307712 0.10439516 -0.09473047 0.18528959 0.3793953 0.121680684 -0.46575266 -0.26748303 -0.5425373 -0.14327364 0.021210803
103642293 0.064360544 0.044409547 0.29994136 0.17000434 -0.38026634 0.18576685 -0.01874187 -0.3674651 -0.08799704 0.15805829 0.1623007 -0.010960064 -0.022480255 -0.33256286 -0.08050371 0.3186995 -0.09817717 0.23229915 0.033323787 -0.31958255 -0.13034222 -0.043053057 0.49768096 -0.039932776 -0.12316528 -0.1131987 -0.24504249 0.12906492 -0.4606931 0.5828848 0.47377473 0.27863446 -0.1739896 -0.31775734 -0.57418543 0.2794206 0.08691629 0.064507246 -0.28312343 -0.099018104 0.030792864 -0.06353454 0.24718906 0.5351782 0.38392594 0.13814315 0.41119555 0.39240032 0.18492864 -0.15135464 -0.042523958 -0.29676232 -0.22749454 0.070952676 0.13068767 -7.207471e-05 0.4952765 0.11980079 0.2766503 0.049404338 -0.140988 0.16434911 0.20137756 0.24038959
257699456 -0.43907842 -0.10587882 0.06557103 0.19376402 0.086393334 -0.36089146 0.02927194 0.07831474 -0.47022176 0.105453745 -0.10922196 -0.10314699 -0.30265057 -0.2095803 -0.040166423 -0.044611767 -0.0108250305 0.07931274 0.057225637 0.0159429 0.039344903 0.40842414 0.3146147 0.19249444 -0.4128264 0.21109988 0.052871555 -0.080668345 0.17631066 -0.085236125 -0.027886938 -0.040661942 -0.18721719 -0.09582483 0.1728005 0.14787944 0.36828807 -0.255684 0.11664036 0.0964487 0.171846 0.60954064 -0.29776046 0.211875 0.27310985 -0.2153183 0.23896101 -0.087521285 0.21934386 -0.2836707 -0.23730405 -0.23006992 0.3070335 -0.010639618 0.32898128 -0.39053112 -0.15148276 -0.029507926 0.12640107 -0.29369527 0.022637159 -0.158192 -0.4003091 -0.025347533
198932169 -0.16401444 -0.06240302 -0.25285357 0.25973982 0.09325845 0.008570289 -0.03922777 -0.054657318 -0.4905233 -0.59631896 -0.07298217 0.33941358 -0.2418601 -0.15383649 -0.41605556 -0.00014644922 0.053166572 0.16034417 0.3686298 0.09736407 0.017221833 0.26992783 0.078724064 0.12195085 -0.12916262 0.30255738 -0.64600784 0.49774465 0.42697266 0.19258031 0.03538616 -0.15292953 -0.191907 0.042954683 0.20979632 -0.18597458 -0.4186618 -0.20792285 -0.08769499 0.14580977 -0.34480157 0.35381165 -0.25390702 0.4921652 0.06679276 0.2512035 -0.2644689 0.4362668 -0.0019412658 -0.3619928 -0.058994558 -0.012521179 0.25102565 -0.21340911 -0.032384127 -0.24121018 0.37404153 -0.29166475 0.13851862 -0.06844799 -0.012783503 -0.2280281 -0.5043461 0.116837986
54780126 0.04407546 0.1959421 -0.08084097 -0.031146564 0.26133895 0.19025852 0.19362712 0.48243526 -0.13979721 0.3817917 0.18150607 -0.26065055 -0.295687 -0.47684914 -0.05680502 -0.24670063 0.03518322 -0.10372663 0.21254036 0.58854914 -0.33867523 0.101127334 -0.67629963 0.18784721 0.001444987 0.08298252 0.20416361 -0.122802764 -0.2555317 -0.15649064 0.40696755 0.046030518 0.085756056 0.07679213 0.5198232 0.12422473 -0.1868665 -0.19477463 -0.1064091 -0.38803628 -0.26621377 0.063141674 -0.26845804 0.5391694 0.47923645 0.1614574 0.45935494 -0.053983796 0.03550945 0.009601828 -0.103223026 -0.1568819 -0.04824862 -0.2498154 -0.117469706 -0.052829944 0.2983082 -0.37347937 -0.22124803 0.21883799 -0.21274412 -0.029323364 -0.19067124 0.54791456
231209225 -0.08188834 0.2868185 -0.13587068 -0.090655185 0.32681388 -0.3291227 0.17694186 0.0963601 0.053096015 -0.05961389 0.45037657 0.27054945 -0.48618272 0.45372656 0.13625696 -0.37740648 -0.12019332 0.008819911 0.3343955 0.635358 -0.30970526 -0.33589697 -0.16265526 -0.23161797 0.23459898 0.18190406 0.21039411 0.2549829 -0.40537998 0.49965924 0.18266301 0.5673829 -0.14698413 -0.07038574 0.23521577 -0.28943735 0.102349594 -0.5989792 0.051641878 0.44707713 0.20480424 0.15507627 -0.025088593 0.11201714 -0.008692021 0.06003135 0.14062896 -0.30415824 -0.16012262 0.16995989 0.50175834 0.13723002 -0.20142134 -0.029827254 0.2491046 0.054316577 -0.13619164 -0.22808053 0.12592985 0.16456321 -0.45526746 -0.45917523 0.18895939 0.23478948
1253284927 0.3906076 -0.25098476 0.37008095 -0.18790093 0.31035957 -0.05596189 0.23587672 -0.15767846 -0.35054392 0.22941703 0.24222077 -0.11561162 -0.058244936 -0.041931365 -0.25045967 -0.288333 -0.20550452 0.13843992 0.15055649 0.11531899 0.07314343 0.0025667557 0.46879187 0.16704834 -0.06921019 -0.11654335 -0.22674516 0.10577014 0.09686325 0.38504657 -0.03830444 -0.027354287 -0.047756273 0.24056968 -0.45621127 -0.009343486 -0.1840577 -0.19019434 0.037414607 -0.1303832 -0.25803244 -0.036915712 0.3737872 0.21839462 0.46129802 0.55632573 0.12249986 0.47684932 -0.24267228 -0.43800524 0.18316312 0.070125654 -0.2702681 0.22284804 0.47036183 0.07430456 0.3313299 -0.45203215 0.1496736 -0.16461012 -0.39408854 -0.18330264 -0.019135207 -0.11664761
156521166 0.17281911 -0.04022215 -0.22363687 0.2686956 0.15572886 0.08493772 0.23947802 0.11069344 -0.20946914 -0.14170371 -0.39124817 0.037810255 -0.4223083 -0.10974429 0.13603558 -0.32579544 -0.13188861 0.11898053 -0.13178651 -0.005845852 -0.054055303 -0.40906593 0.07639697 0.42234287 -0.37655956 0.06163021 -0.47586104 -0.34363225 -0.05387019 -0.16152564 0.37271908 -0.11693266 -0.3011765 -0.18588786 -0.36462796 0.249187 -0.067619495 -0.33876926 0.22090043 0.059603315 -0.13488244 0.124863505 -0.2164416 0.46015528 0.54441565 0.3467897 -0.02883025 -0.13371412 0.30101344 0.03504151 0.031580668 -0.36241886 -0.24892184 -0.13791467 -0.039692093 -0.30371305 0.08973543 0.026731659 -0.06023958 0.06373292 -0.09100633 -0.22353779 -0.30385736 -0.055926245
64643728 -0.15091504 0.04503875 -0.0866564 0.23845333 0.0016038732 0.1998472 0.34874347 0.08474719 0.123725764 -0.12737314 -0.07538693 0.11151661 -0.23859948 -0.46300796 0.1928711 0.025479892 -0.43045023 0.071217895 -0.16031066 -0.025166333 -0.27554318 -0.0005063738 -0.18934119 -0.065595165 0.03872482 0.43583214 0.04486832 0.17492259 0.16321857 -0.16159119 0.08134542 -0.23047554 -0.3655486 -0.29494894 -0.12779012 0.10677324 -0.23568735 -0.25453848 0.18992321 0.023158995 -0.23116253 0.016190585 0.16928503 0.34917137 0.61147004 0.20323841 -0.002724675 -0.05443354 -0.1918329 -0.30366468 0.34331718 0.6596795 -0.0088179875 0.4850334 0.30183533 -0.007088127 0.19686386 0.0057190815 -0.24917294 0.028823862 -0.18037106 -0.073335364 0.18774642 0.03120173
230278157 0.09027179 0.3726658 0.23433582 0.18787307 0.05934697 -0.58982813 0.26971477 -0.35133672 -0.06361598 0.19290851 -0.4201019 0.047643375 0.0025304777 -0.48640218 0.5220098 -0.02094203 0.39317563 0.38461483 0.06211707 -0.06024059 -0.7031885 -0.023398928 -0.012093405 0.11842874 -0.048258174 0.2634219 -0.006174878 0.05631002 -0.67559266 0.18766621 0.030666841 0.25205398 0.06906484 0.36887604 0.15141092 0.032271236 0.009746429 -0.36124784 -0.13180241 0.15038013 -0.1282724 -0.5635708 -0.060758404 0.18010648 -0.070082925 0.009589526 -0.22698438 0.4280579 -0.04647442 -0.109583914 -0.043906596 0.014397644 0.1812387 -0.23182634 0.29399747 -0.42046997 0.07626737 0.28663298 0.13457637 -0.06997923 -0.11942471 -0.3450057 -0.5405149 0.08775504
132708764 -0.05689786 -0.30579278 0.11566329 -0.19472097 -0.48805228 0.33044603 0.26386082 -0.11049702 -0.17494863 0.05702689 0.13884999 -0.35299325 -0.00037427052 -0.01830794 0.10578135 -0.004813714 -0.039350733 0.1033418 -0.00031718626 -0.0028432438 -0.26110557 0.20418434 0.25563464 0.49484438 -0.42912057 0.12449493 0.0771069 0.07715393 -0.16100062 0.18256997 -0.019140182 0.13610806 0.10607692 -0.3739551 -0.30198708 -0.00920194 -0.19194688 -0.21989886 0.23787199 0.3791243 -0.27518004 0.16737577 -0.22966264 0.19630888 0.18831626 -0.22055376 0.17840268 0.13986444 -0.26182264 -0.010957467 0.45651528 0.026448237 0.2250528 -0.18588974 0.39343655 -0.06899516 -0.07319545 0.008187275 -0.33248577 -0.10248443 -0.2871978 -0.2811904 -0.24857382 0.7366255
363365354 -0.34459633 -0.2853625 -0.10832037 0.41579244 -0.17403442 -0.048088435 -0.010153241 -0.3148021 -0.3528821 0.4005702 -0.09553246 -0.07859645 0.3260642 0.03732902 0.02594049 -0.15906794 0.15142351 -0.16799599 -0.009713841 0.17385074 -0.2971003 0.151631 -0.1658517 0.31467748 -0.16188262 0.20855166 0.003987408 0.035222575 0.05616819 0.13580967 0.46028674 0.12031655 -0.013745097 0.049008496 -0.04074651 0.2422832 0.005949091 -0.5679127 0.05709697 -0.31004864 0.0389075 0.3369552 0.34240776 0.002811674 0.4056137 0.15220489 0.30399656 -0.0036562602 0.025384251 -0.1660318 0.08351068 0.17499553 -0.09095585 -0.13995622 0.27192077 -0.07990366 -0.1728422 -0.32319537 -0.47385478 -0.37782717 -0.41306338 -0.022108043 0.051651645 0.23802045
205413225 -0.14300233 0.035122264 0.23486614 0.50628585 0.058705043 0.018147513 0.26438794 -0.094368614 -0.46551996 0.21257955 0.23352945 -0.23482431 -0.08730865 -0.35056508 0.118624665 -0.09357633 -0.06616924 0.096907444 -0.15045968 -0.08092457 0.1881617 0.1741543 -0.29443577 0.3502717 -0.30153322 0.13883406 -0.18698518 0.33598426 -0.037037183 0.17385252 0.2164381 0.022616753 0.31038925 -0.14659408 -0.22959572 0.110358074 -0.00885275 -0.26670972 -0.3518328 0.16580209 0.044324562 -0.09746195 -0.086390354 0.3195428 0.20502846 -0.21072137 -0.13527043 -0.05473835 -0.17513894 -0.4010511 0.25054502 0.052555803 0.25064242 -0.15584838 0.14606638 -0.3212828 -0.27900797 -0.38353366 -0.10744882 -0.05001849 -0.09001432 0.33545685 -0.059820008 0.5519285
348257918 -0.0035099692 -0.045122307 0.45813438 0.18431093 -0.3535301 -0.23905122 -0.034014802 -0.403146 0.12483506 -0.20040174 -0.041828953 0.09677415 -0.54486924 -0.04601439 0.2227851 -0.26915324 0.07054382 0.08244774 0.4190179 0.79848456 -0.33728868 -0.016808884 -0.08418101 0.14240427 0.33928105 -0.1537638 -0.07264464 -0.16629311 -0.13756922 0.28356898 0.29203054 0.27922684 -0.4035056 0.1823113 -0.10769984 0.08719723 0.50183034 -0.08628591 -0.2338013 0.40104568 -0.1326357 0.16801079 -0.063898444 0.018460741 -0.19898322 -0.13147229 0.06089571 0.34069583 -0.039890714 -0.12035569 0.009294568 -0.38514104 0.023098767 0.2893195 0.18328512 -0.3231218 0.14190735 -0.23127376 -0.26587057 -0.12276396 -0.2674944 -0.14904484 0.28984845 0.18765515
170424259 -0.16350879 -0.15375647 -0.13674358 0.20402399 -0.34474897 -0.1339862 0.3450752 -0.3741207 -0.24246542 -0.15617852 -0.056187935 0.26430953 -0.13292521 -0.08268037 0.41486192 -0.29565048 0.19629465 0.12822022 -0.3528106 -0.28648856 -0.0342397 -0.60724086 -0.2743672 0.20725212 -0.14151147 -0.552496 0.35250124 0.023354469 0.122687906 0.51073676 0.42199638 0.12982468 -0.055714015 -0.3882029 0.27330527 -0.1629421 -0.0027731033 0.40679002 -0.23518808 -0.018138196 0.53745097 0.35180658 -0.3625921 0.3413488 0.105117686 -0.36002913 0.24172239 0.39798084 -0.27735698 0.15561014 0.056249846 0.13268451 0.0035072223 0.1374641 0.07947899 -0.09405884 0.057011474 -0.19025512 -0.044646736 0.14838317 -0.30555812 0.18632327 0.21713318 0.19845492
167821244 -0.1664704 -0.3899199 -0.6343215 -0.21201193 0.2832083 -0.23753141 0.2939152 -0.3436333 -0.09494371 0.15092188 -0.00020724938 0.17735212 0.08506392 -0.17247412 0.06694023 0.004073848 0.17065684 0.12311651 -0.1847109 0.48637694 -0.4371585 -0.073813945 0.009844837 0.3506633 -0.5599746 0.5515112 0.0517437 -0.2818775 -0.013396 0.17167361 -0.045644216 0.052625272 -0.3452724 -0.40025294 0.20334287 0.068837866 0.027185949 -0.28046042 0.5708416 -0.119329214 -0.18171203 -0.033374112 -0.014549788 -0.04809993 0.5257398 0.1957201 -0.0016757715 -0.039426114 0.35669282 -0.46988308 0.003976077 0.048137568 -0.002734469 0.021097662 0.11100343 -0.23245387 0.09774916 0.050968304 -0.14785072 -0.13945027 -0.2901234 -0.024751993 -0.06629872 -0.21057713
272116860 -0.507701 0.08297348 0.043808375 -0.2097775 -0.1072003 -0.17039587 0.02255381 -0.22435382 -0.18443263 -0.20440252 -0.039915808 -0.08255128 -0.35540548 -0.24722625 -0.064076655 0.59675044 0.038785543 -0.112582244 -0.120163254 -0.0020872143 -0.12011736 0.054123446 -0.06398287 0.13031314 0.11955305 0.067538 0.09060084 0.2149877 0.07355014 -0.33122247 0.27840087 0.38138747 -0.6134286 -0.23291896 0.043057024 -0.12821656 0.60148084 -0.012091601 0.02177685 0.11991052 0.21400249 0.088944994 -0.25543988 0.15979345 0.5386416 0.004567953 0.5368976 0.46270087 0.22796431 -0.0109303715 -0.07946114 -0.20294657 0.043951806 -0.107523516 0.34746832 0.043641277 -0.20827307 -0.039210834 -0.19079421 -0.12753677 0.00998522 0.03480125 -0.21765429 -0.14074476
180990505 -0.046782326 0.3605685 0.01871243 -0.043517325 -0.19320774 -0.02001748 -0.119042516 -0.011337431 -0.64395887 -0.04579968 -0.20490006 0.4176797 -0.2660423 -0.071009524 -0.14331266 0.08216574 0.08266708 -0.15768038 0.2018866 0.14856142 -0.6792188 0.020529762 -0.3397033 0.09516074 0.31467283 0.009270667 0.008229421 -0.10026421 -0.14747164 0.10412974 -0.29400727 -0.14780779 0.3527706 -0.16511086 0.023479635 -0.2551742 0.08130445 -0.3355093 0.02541235 0.173392 -0.04259117 0.09792912 -0.12836163 0.11776524 0.6768346 -0.051522262 0.26533023 0.09682655 0.041376628 -0.018954337 0.43645352 0.15318792 -0.27872422 0.22395739 0.38902232 -0.23981121 0.12873684 0.35327557 -0.0075384206 -0.15807682 0.22753541 -0.40215227 -0.28831476 0.09470021
226257592 -0.4937052 -0.14676368 -0.03498348 0.1877805 0.07363955 -0.00046912156 0.0020360854 -0.030174265 -0.045072883 0.29879302 -0.0012801397 0.21791525 -0.3831947 -0.367324 0.5118631 -0.0780759 -0.69135207 -0.24048561 -0.36504504 0.24603476 0.03612069 -0.26082605 0.21659064 -0.031150883 -0.3462124 0.08831099 0.078329764 0.35763574 -0.022396142 0.2441316 0.32360455 -0.095619425 -0.3588647 -0.03433819 -0.1467417 -0.1380899 0.49202752 -0.18347313 -0.20496723 0.009272515 -0.19713467 0.08538493 -0.04122537 0.21341172 0.060002748 -0.30963326 0.21219173 0.19932447 -0.1729543 0.13316406 -0.04981426 -0.15370539 0.23089555 0.5731253 -0.0217294 0.014194107 -0.12522767 0.4208216 -0.17065936 -0.2665432 0.14396629 -0.18522848 -0.3206761 -0.105054036
56840620 -0.37525883 0.20546345 -0.020030927 -0.41349715 0.47769183 0.306746 0.5441482 -0.15901498 -0.08485421 -0.12433504 0.6239471 -0.0033965153 -0.24812457 -0.7012355 -0.48732802 -0.12226664 -0.57172716 -0.31283706 0.19822076 0.18146574 -0.28485608 -0.08296707 0.24325293 0.089370534 0.050583374 0.06123753 0.030603345 0.08207191 -0.12653759 0.14600413 -0.023604177 -0.13262059 -0.16974534 0.21776074 -0.28395906 0.14529067 -0.27020666 0.04648309 -0.20742106 0.21069154 0.45172322 -0.048956733 0.13041405 -0.22344834 0.009273471 0.19397701 0.5256423 0.28112406 -0.32632667 0.07719208 -0.18411545 0.0035848895 -0.08884615 0.12896779 0.17069437 0.3778622 0.12862188 -0.12058125 -0.005288003 0.10058229 0.12245916 0.02665048 -0.33375463 0.26047918
72362869 -0.34352252 0.40249622 0.14160006 0.11130137 -0.43779218 -0.15687062 0.4937975 0.0009305105 -0.36907718 -0.30391437 0.059708785 0.31192884 -0.5552992 -0.2277706 -0.13671932 0.13083504 0.020453619 -0.065057926 -0.04510689 0.45291522 0.055117913 0.12721601 -0.07404993 0.2272676 0.4280749 -0.3461075 0.21645468 0.30279365 0.0899607 -0.53726655 0.19725874 0.43301043 -0.052806284 0.0026766618 0.29906037 -0.23962747 0.17726192 -0.5930808 0.30646497 -0.16840085 0.05534087 0.25437695 0.19633986 0.4314623 0.60340977 -0.07982747 0.07581586 0.21855786 -0.12725994 -0.0964311 0.28820008 0.10742517 -0.055236936 -0.46231732 0.302901 -0.29316872 -0.024804445 0.2002564 0.04011814 0.14603898 0.21460208 -0.19398497 -0.12832873 -0.069709346
332627423 0.28402194 0.08190315 -0.42791277 0.22824791 0.010007407 0.1445468 0.2001186 0.008776914 -0.069498755 -0.17804047 0.4345541 -0.49974737 -0.4615883 0.02157989 0.15460835 -0.042209312 0.15480535 -0.12128087 -0.044876978 0.29126865 -0.10687715 0.6302233 -0.1004982 -0.13038947 -0.20606759 -0.25717652 0.3908661 0.25098118 -0.43691757 0.18821049 0.03634505 -0.2675639 0.30626574 -0.0020406253 0.40688494 0.3129046 0.018851032 0.20710331 -0.20323026 -0.18552428 0.44155994 0.33845705 0.11571672 0.36312857 0.31810224 -0.23125018 0.047888156 0.40262187 -0.29005298 -0.18875134 -0.26823384 -0.04673675 -0.13331506 0.5198598 0.19683403 -0.018551422 0.019251466 -0.17319569 0.32764965 -0.11023145 -0.0037892275 -0.08737904 -0.50635946 0.200604
31451582 0.09600463 0.378377 -0.10675871 0.19392665 0.08063606 -0.22563279 0.43891904 0.23639926 -0.5828058 0.13520911 0.1479881 0.17196563 -0.33427164 -0.11577983 -0.6345538 0.071558096 -0.113058 0.050269242 0.32122648 0.52602446 -0.25995564 -0.24882066 0.22107883 0.34046555 -0.69829845 0.036027543 -0.092968434 0.08024364 -0.04386597 0.09196477 -0.27943823 0.07204795 -0.27389592 -0.21913236 0.31366804 -0.3517519 0.19770998 0.044856913 -0.13467447 -0.22677562 0.6013482 -0.25836083 0.5794241 0.075613804 0.0069062267 -0.034055937 0.078982264 -0.054098193 -0.5184381 -0.04755238 -0.06392379 0.20023732 0.14677942 -0.048698023 -0.05907085 -0.35721114 0.4818482 -0.2349076 0.017300164 0.026556402 -0.5425927 -0.1071474 0.14977191 -0.066528775
41861751 -0.017861448 0.2179019 -0.5715489 -0.051393628 0.25588045 -0.41241303 -0.03801422 0.18223755 -0.0025818483 0.51900303 0.17496628 -0.16801596 -0.6296174 -0.053441063 -0.03243463 0.1715664 -0.3095756 -0.16286035 -0.0881059 0.34506425 -0.0030346583 0.47650796 -0.13893676 0.25249007 -0.18089248 -0.11689929 0.24745008 0.31310028 0.22533408 0.15661131 0.20054942 0.46792677 -0.27365276 -0.22566833 -0.20708069 0.33842012 -0.30821672 0.1397245 -0.031376466 -0.0086788675 0.2943574 -0.22903222 -0.33571938 -0.2288685 0.26344416 -0.1807567 -0.07935416 0.27870736 0.40756008 -0.61919796 0.11969592 0.2600301 0.22953571 0.0848737 -0.471818 -0.28325772 0.014458351 0.080730915 -0.2548563 0.32935295 -0.3962505 -0.1706543 -0.06334339 0.17899412
560489253 0.12743767 0.6826243 -0.24792571 -0.16747895 0.37387878 0.23759314 0.21381156 -0.54985684 -0.6842215 -0.32489008 0.019375952 0.08765453 -0.3318376 -0.15201336 0.082596526 -0.21249563 0.102596976 -0.13488173 0.23924817 0.29037458 -0.10391238 0.089062564 -0.30591634 0.35289234 0.23916176 0.29511866 -0.18706661 0.38417277 0.08322696 -0.07941327 0.15215607 -0.11076142 -0.5700098 0.04030169 -0.11953667 0.1191573 0.04013232 0.11763161 -0.0028870297 -0.2186098 -0.2637189 0.18204156 -0.012553617 0.094876595 0.10151391 -0.2577495 -0.13737082 0.42157584 -0.12004291 0.1829935 0.05326258 -0.04209032 -0.30783498 -0.11142155 0.5859217 0.12682812 -0.2841332 0.38365823 0.026131777 -0.025948077 -0.03370136 -0.5524165 0.09443692 -0.41053253
233414838 0.09368456 0.0704408 0.09266158 -0.17521513 -0.44417337 -0.26455665 -0.14390452 -0.2615919 -0.61322266 -0.023469077 -0.28040853 -0.25102246 -0.1653259 0.09199506 0.16258998 -0.5430509 -0.49674276 -0.058629252 0.09244844 0.22520855 -0.14535171 0.48847163 -0.33297223 0.16010979 -0.009518415 0.2810944 -0.0801107 -0.05543057 -0.10946709 0.33815312 -0.034994893 0.09719289 -0.5303944 -0.31585383 -0.3763614 0.058058523 -0.13212468 -0.001597164 -0.08347318 0.20712705 0.119563386 0.013144932 0.08170455 0.06435103 0.71140915 0.08698837 0.11049264 0.020641746 0.1956146 0.099916786 0.19770598 -0.5093731 -0.47617093 -0.03765466 -0.08639971 0.23964886 0.43761268 0.07661821 0.13454618 0.13121712 0.001602708 -0.6268129 0.09117236 0.32763192
55749605 0.26177806 -0.364651 -0.077641085 -0.17287861 -0.23146476 0.23167945 0.24281988 -0.0043398426 -0.2684455 -0.017652608 0.48675984 -0.2515227 -0.1127573 -0.13272949 0.17655477 -0.5235323 0.032408938 0.14704537 -0.3705949 -0.20804688 -0.27068248 -0.040375896 0.06195207 -0.05273223 -0.26350987 -0.14037174 0.013155093 -0.2555474 0.014055898 0.7964722 0.057882883 0.341501 -0.06962038 -0.37179342 -0.16474499 -0.371534 -0.29651898 -0.080673374 -0.06895546 -0.060004402 0.21424343 0.3731837 -0.11278147 0.1096545 0.43539283 0.089031875 0.09046974 0.051469576 -0.05297283 -0.34360623 -0.30081043 -0.15654826 -0.2619535 0.015230935 0.26706168 -0.019877091 -0.011181368 0.16879667 -0.097036645 -0.14223075 0.19695994 -0.18805075 -0.87012464 -0.057593513
331813832 -0.27092683 0.08593867 -0.31201297 0.05223535 -0.20899722 0.4363291 -0.09577278 0.19598752 -0.36472702 -0.12359128 -0.27002373 -0.27872503 -0.030555744 -0.0796989 0.06284945 0.08729585 0.103944734 0.37601507 0.5290424 -0.1651357 -0.017193953 0.1038881 0.06498577 0.21632794 -0.33729753 -0.0241311 0.18552786 -0.36004138 -0.27825162 0.15202637 0.57131994 0.008123266 -0.22302046 -0.061038908 -0.39814565 0.01950285 0.34418705 -0.31432432 -0.19949974 0.25587615 -0.014888165 0.3258539 -0.07406649 0.19441602 0.07877508 0.2574743 -0.20633796 0.047617357 -0.08917812 0.1488424 0.17822218 0.16552441 -0.005850002 0.2465879 0.16116248 -0.5384354 0.15650426 -0.060350012 -0.13639995 0.07135584 -0.5122108 -0.067822434 -0.16063544 0.2964425
163559269 -0.23536915 0.18031664 -0.24552196 -0.44703802 -0.27051592 -0.12517473 0.108526416 0.0831912 -0.23491538 -0.25943664 0.46494952 -0.87599087 -0.27605647 -0.44642407 -0.20308454 0.23974061 -0.34951946 0.12010268 0.18214074 0.38841307 -0.44363582 -0.2451512 0.18875197 0.15542094 -0.23774041 -0.451146 -0.29225987 0.14332087 0.55445224 0.25769565 -0.4031747 0.045167454 0.007452767 0.21581508 -0.094873875 -0.2730334 0.1087857 0.0282887 -0.03983103 0.1500531 0.32267976 -0.24893591 0.05134027 -0.32996738 0.26560146 0.3233565 0.1569594 0.31881288 -0.04890314 -0.48544225 0.1466221 -0.24788365 0.23336 0.1576131 -0.2329718 -0.16643116 0.08638837 0.17984074 -0.08751406 -0.022835458 -0.6152025 -0.087789014 0.045076486 0.16431074
48028402 -0.3211826 0.09918752 -0.28327405 -0.12800333 0.29293245 -0.25600594 0.5287756 -0.36449945 -0.0809 0.23534396 -0.11533553 0.21664563 -0.40016377 -0.0060843714 -0.061358485 -0.5127526 0.342205 0.18282561 0.3405282 0.18977109 -0.224674 0.13592981 0.0018447468 -0.12715971 -0.37624702 0.22861835 -0.53574747 -0.08160415 0.052130442 -0.34122816 0.55346465 -0.05446314 0.059358843 -0.06611492 -0.29429007 -0.31491026 -0.019411283 0.27129757 0.14933862 0.0960116 0.30998304 0.21402463 0.11626247 0.20843509 0.4175691 0.4573136 0.15682131 0.27576405 0.04198987 0.42646757 0.09953468 0.21872023 0.6422294 0.049607232 0.43822047 0.04398058 0.08808552 0.2112104 0.091386035 -0.039233115 -0.08622534 0.004069961 -0.28526238 0.22315383
126458229 -0.17188324 0.3048743 0.063214324 0.13656756 -0.31267324 -0.25024727 -0.08502451 -0.11985426 -0.31855056 -0.09537636 0.14272222 0.32186472 -0.26443067 -0.054768257 0.22425286 -0.18559654 -0.3028336 0.452544 0.28463164 0.13213061 -0.77815884 0.05794687 -0.28398728 0.048872374 0.025455598 0.29324 -0.10635907 0.23595904 -0.1878223 -0.22450493 0.1855393 0.38370538 0.019187937 -0.38678637 -0.01965317 0.048013445 0.23296332 -0.41854185 -0.21235669 -0.42219782 -0.20192978 -0.29671425 -0.12877907 0.45570022 -0.16991095 -0.09805013 -0.018928383 0.06379174 -0.47598568 -0.216178 0.3947031 -0.11106446 -0.28415436 0.21276987 -0.43720257 0.06989186 -0.37982535 0.36279377 0.16264606 -0.7280172 -0.3224791 0.11920077 -0.07156207 0.14495234
372525649 -0.06565214 0.20433655 0.21539092 -0.42017034 0.38192505 0.3459187 0.020602759 0.18693566 0.030945938 0.0069613857 0.022862483 0.24490112 -0.6312313 -0.39799 -0.0015827303 -0.12568086 0.05375039 0.36214545 0.008341583 0.0014825229 -0.17379816 0.093291886 -0.41938993 0.46285585 -0.2948245 -0.0012239488 -0.3642767 0.24831837 -0.12553044 0.2589734 -0.05445978 0.117240086 -0.27674958 -0.03703159 -0.2638115 -0.13378288 0.10322461 -0.13408059 0.067762226 -0.08118921 -0.29715937 -0.25590783 0.13553564 0.27726933 -0.21520305 0.17452647 0.532267 -0.11133685 -0.4061937 -0.2787244 -0.36452746 0.16228397 0.30732358 -0.21570131 0.18095954 -0.41911063 0.3843337 -0.08899225 -0.17331785 0.58219314 -0.19645543 -0.20307162 -0.31165436 0.09550422
91225009 -0.02462092 0.031469025 -0.065146446 0.39483303 0.07223237 -0.21877469 0.021019531 -0.35065526 -0.2725294 0.051883824 0.08922163 0.16935392 -0.38036984 0.038503647 -0.21662286 -0.11112802 -0.02139029 0.2777996 -0.07145553 0.18517388 0.09774734 -0.45628655 0.026070569 0.14426625 -0.13239063 0.21965738 -0.02697292 0.48275527 0.08915428 -0.04263591 -0.47263086 -0.2766076 -0.07334061 0.11244242 0.35186392 0.17823783 0.20311563 0.18349008 0.26003405 0.08657714 -0.039698374 0.41222575 -0.3712 0.22063254 0.48543674 0.19771668 -0.0087457625 0.47982514 0.31048658 -0.40264753 -0.05107505 -0.022766562 0.39025187 -0.2728081 0.49048796 -0.2604738 0.09250686 -0.37461078 -0.07723201 -0.25993118 0.07886916 -0.28725916 -0.16472305 0.33766562
79758113 0.054531787 0.31654742 0.12989248 -0.21477851 0.088154 0.014226098 0.1679123 0.0761924 -0.3403771 0.44013342 0.25610173 -0.02618035 -0.2723368 -0.33066836 -0.766966 -0.23378657 -0.20773199 -0.15041387 -0.16133486 -0.21942678 0.10600025 -0.3793049 -0.008683452 0.03175119 -0.42388758 -0.33457315 -0.012691133 -0.2556877 -0.03750435 0.27114064 0.2540183 -0.10195768 -0.0065035224 0.1742712 -0.052778397 0.028252514 0.17492239 -0.13710031 -0.02773951 -0.30421126 0.40060616 0.07189982 -0.15097895 0.36139512 -0.0064835935 0.3938498 0.0991002 0.19344142 0.13437577 0.088095605 0.78902894 0.011406049 0.18456581 0.50538987 0.080682546 -0.18393943 0.12404571 -0.072993 0.03333965 -0.31915712 -0.31519896 -0.2220492 0.057481673 -0.14232041
47635525 -0.31868073 0.47426802 -0.17093492 -0.12263933 0.1381856 -0.009530228 0.007306566 -0.14311989 -0.23121934 -0.36067823 -0.25877497 -0.43727127 -0.3239528 0.064941734 0.045934156 -0.2980653 0.02568203 0.15022027 -0.1441931 -0.13051388 0.01976443 0.45179647 0.52347636 0.11685015 -0.45371526 0.21617115 0.14667691 0.23830052 0.24525222 0.5714641 0.082534395 0.101884164 0.17374319 0.32182977 0.23215374 0.35163018 0.50587064 -0.112399325 -0.26037762 0.0144815305 -0.05892515 0.08763659 0.10392697 0.022595625 0.5807904 0.15663998 0.6862409 -0.042920392 -0.11952057 -0.095582746 -0.15930265 -0.076046176 0.011695025 -0.14758097 0.15399204 -0.27594164 -0.12716104 0.060983945 0.25071493 0.30207375 -0.09716476 -0.12293648 -0.15296794 0.24498037
